{"learner":{"attributes":{"scikit_learn":"{\"_estimator_type\": \"classifier\"}"},"feature_names":["Type","Air_temperature_K","Process_temperature_K","Rotational_speed_rpm","Torque_Nm","Tool_wear_min","Failure_Type"],"feature_types":["int","float","float","float","float","float","int"],"gradient_booster":{"model":{"gbtree_model_param":{"num_parallel_tree":"1","num_trees":"300"},"iteration_indptr":[0,1,2,3,4,5,6,7,8,9,10,11,12,13,14,15,16,17,18,19,20,21,22,23,24,25,26,27,28,29,30,31,32,33,34,35,36,37,38,39,40,41,42,43,44,45,46,47,48,49,50,51,52,53,54,55,56,57,58,59,60,61,62,63,64,65,66,67,68,69,70,71,72,73,74,75,76,77,78,79,80,81,82,83,84,85,86,87,88,89,90,91,92,93,94,95,96,97,98,99,100,101,102,103,104,105,106,107,108,109,110,111,112,113,114,115,116,117,118,119,120,121,122,123,124,125,126,127,128,129,130,131,132,133,134,135,136,137,138,139,140,141,142,143,144,145,146,147,148,149,150,151,152,153,154,155,156,157,158,159,160,161,162,163,164,165,166,167,168,169,170,171,172,173,174,175,176,177,178,179,180,181,182,183,184,185,186,187,188,189,190,191,192,193,194,195,196,197,198,199,200,201,202,203,204,205,206,207,208,209,210,211,212,213,214,215,216,217,218,219,220,221,222,223,224,225,226,227,228,229,230,231,232,233,234,235,236,237,238,239,240,241,242,243,244,245,246,247,248,249,250,251,252,253,254,255,256,257,258,259,260,261,262,263,264,265,266,267,268,269,270,271,272,273,274,275,276,277,278,279,280,281,282,283,284,285,286,287,288,289,290,291,292,293,294,295,296,297,298,299,300],"tree_info":[0,0,0,0,0,0,0,0,0,0,0,0,0,0,0,0,0,0,0,0,0,0,0,0,0,0,0,0,0,0,0,0,0,0,0,0,0,0,0,0,0,0,0,0,0,0,0,0,0,0,0,0,0,0,0,0,0,0,0,0,0,0,0,0,0,0,0,0,0,0,0,0,0,0,0,0,0,0,0,0,0,0,0,0,0,0,0,0,0,0,0,0,0,0,0,0,0,0,0,0,0,0,0,0,0,0,0,0,0,0,0,0,0,0,0,0,0,0,0,0,0,0,0,0,0,0,0,0,0,0,0,0,0,0,0,0,0,0,0,0,0,0,0,0,0,0,0,0,0,0,0,0,0,0,0,0,0,0,0,0,0,0,0,0,0,0,0,0,0,0,0,0,0,0,0,0,0,0,0,0,0,0,0,0,0,0,0,0,0,0,0,0,0,0,0,0,0,0,0,0,0,0,0,0,0,0,0,0,0,0,0,0,0,0,0,0,0,0,0,0,0,0,0,0,0,0,0,0,0,0,0,0,0,0,0,0,0,0,0,0,0,0,0,0,0,0,0,0,0,0,0,0,0,0,0,0,0,0,0,0,0,0,0,0,0,0,0,0,0,0,0,0,0,0,0,0,0,0,0,0,0,0,0,0,0,0,0,0,0,0,0,0,0,0,0,0,0,0,0,0],"trees":[{"base_weights":[-2.7319776E-2,1.7799941E0,-8.0970293E-1,1.0015678E0,2.5549638E0,-1.1410797E0,1.4420708E0,-1.7587315E-1,2.149476E0,2.690036E0,7.509139E-1,2.663677E0,-1.3172781E0,1.1255817E0,2.593109E0,-1.4305756E0,2.209674E0,1.5313975E0,2.7158062E0,1.425717E-1,2.4869676E0,-1.2362937E0,1.8931234E0,1.4125772E-1,1.4459121E0,-1.4440429E0,1.890086E0,1.2900354E0,-6.0186714E-2,4.1888803E-2,1.3166021E-1,-1.4585714E0,-1.2106351E-1,1.1111605E0,2.7035341E0,-7.954458E-1,1.4054339E-1,2.7374015E0,3.0738164E-2,4.8620936E-1,2.7722263E0,-6.6151164E-2,-1.6414147E-2,2.9556453E-1,2.4922643E0,-4.6216648E-2,1.0521765E-1,-1.4522578E0,-1.7796323E-1,8.624254E-1,2.5228963E0,8.935774E-1,2.040619E0,-2.9020533E-1,8.453374E-2,-7.4890256E-2,-3.1132507E-1,-3.9990302E-2,3.0738164E-2,1.8266505E0,-1.0354894E0,4.0920854E-2,1.3885282E-1,-1.3686641E0,8.501225E-2,1.3691844E0,1.3958192E-1,-6.88702E-1,2.1777732E0,1.404587E-1,1.4364679E0,-5.3836834E-2,9.462156E-2,3.0738164E-2,1.3225792E-1,-4.0994543E-1,-1.4588357E0,9.001774E-2,-8.7342036E-1,-1.2362937E0,1.2507366E-1,3.0738164E-2,1.2896651E-1,1.5403948E0,5.8009934E-1,2.2330818E0,4.2765847E-1,-6.4740336E-1,1.0271581E0,2.3020616E-2,-4.858033E-2,-2.6754593E-2,2.1617362E0,-5.7384938E-2,-1.6414147E-2,-7.10121E-2,-1.6414147E-2,-1.1328232E0,1.2899748E0,-3.9990302E-2,1.0973086E-1,-9.474821E-1,2.3020616E-2,2.0566335E-2,1.2428453E-1,-2.2078602E-2,1.0973086E-1,9.171667E-1,-6.2412262E-2,-1.4697254E0,-1.0821121E0,-7.2925375E-3,-1.0550277E0,-6.6151164E-2,-1.6414147E-2,6.243191E-1,1.8046446E0,1.4021657E-1,1.1198324E0,4.0920854E-2,2.279136E0,-6.1577386E-1,8.197091E-2,3.4276587E-1,-1.0058727E0,-1.6414147E-2,8.197091E-2,7.162008E-3,2.3454373E0,-1.6414147E-2,-6.1870236E-2,3.0220583E-1,1.0485983E-1,-6.458857E-2,-1.0479366E-1,5.882109E-2,7.162008E-3,-1.2444311E0,-7.411705E-2,-1.1974965E0,2.5178984E-1,-5.8324546E-2,-1.6414147E-2,1.5678008E0,-4.161269E-2,1.9302554E0,-7.5613277E-4,1.8190526E0,-2.2072798E-1,-5.3836834E-2,1.3868934E0,1.2463174E0,2.3745072E0,-7.5613277E-4,-4.6216648E-2,-3.690239E-2,8.453374E-2,-1.1972195E0,-3.6028376E-1,1.0648224E0,1.3072439E-1,-4.858033E-2,8.453374E-2,-4.6216648E-2,4.1888803E-2,-7.01674E-2,-6.6980636E-1,-2.1129867E-2,-1.3590797E0,5.1093627E-2,-3.9990302E-2,-1.6414147E-2,1.0973086E-1,1.2169518E-2,2.0635154E0,7.162008E-3,1.0818248E-1,9.462156E-2,-4.2941773E-1,1.622691E0,-4.9965787E-1,9.462156E-2,3.659603E-1,1.24904506E-1,1.2463174E0,-1.6414147E-2,-6.458857E-2,3.0738164E-2,-4.858033E-2,1.2169518E-2,7.789047E-2,4.0618655E-1,-9.4007075E-1,-4.858033E-2,8.0441284E-1,-6.942435E-2,-1.6414147E-2,2.1720035E0,2.0566335E-2,-6.538223E-1,8.966121E-1,9.68157E-1,2.1018064E0,-4.340107E-2,7.162008E-3,6.321127E-2,-3.9990302E-2,9.968806E-2,-3.9990302E-2,5.4314315E-2,-1.2779857E-2,-4.4802415E-1,-6.494083E-2,-1.6414147E-2,7.789047E-2,3.0738164E-2,1.1223073E-1,-1.1803927E0,3.4902714E-2,5.882109E-2,1.2169518E-2,1.868978E0,2.882363E-1,3.0738164E-2,1.10034004E-1,-5.8324546E-2,5.2280074E-1,-2.1111849E-1,-6.884572E-2,7.6149255E-1,-7.524889E-1,1.0485983E-1,3.0738164E-2,-5.7520854E-1,1.3358334E0,-3.9990302E-2,7.055568E-2,-3.9990302E-2,2.0566335E-2,1.428147E0,-2.1111849E-1,-4.954753E-2,7.162008E-3,-5.059283E-2,5.12038E-3,8.453374E-2,2.0566335E-2,7.162008E-3,9.462156E-2,-4.340107E-2,3.0738164E-2],"categories":[],"categories_nodes":[],"categories_segments":[],"categories_sizes":[],"default_left":[0,0,0,0,0,0,0,0,0,0,0,0,0,0,0,0,0,0,0,0,0,0,0,0,0,0,0,0,0,0,0,0,0,0,0,0,0,0,0,0,0,0,0,0,0,0,0,0,0,0,0,0,0,0,0,0,0,0,0,0,0,0,0,0,0,0,0,0,0,0,0,0,0,0,0,0,0,0,0,0,0,0,0,0,0,0,0,0,0,0,0,0,0,0,0,0,0,0,0,0,0,0,0,0,0,0,0,0,0,0,0,0,0,0,0,0,0,0,0,0,0,0,0,0,0,0,0,0,0,0,0,0,0,0,0,0,0,0,0,0,0,0,0,0,0,0,0,0,0,0,0,0,0,0,0,0,0,0,0,0,0,0,0,0,0,0,0,0,0,0,0,0,0,0,0,0,0,0,0,0,0,0,0,0,0,0,0,0,0,0,0,0,0,0,0,0,0,0,0,0,0,0,0,0,0,0,0,0,0,0,0,0,0,0,0,0,0,0,0,0,0,0,0,0,0,0,0,0,0,0,0,0,0,0,0,0,0,0,0,0,0,0,0,0,0,0,0,0,0,0,0],"id":0,"left_children":[1,3,5,7,9,11,13,15,17,19,21,23,25,27,29,31,33,35,37,-1,39,41,43,-1,45,47,49,51,53,-1,-1,55,57,59,61,63,-1,65,-1,67,69,-1,-1,71,73,-1,-1,75,77,79,81,83,85,87,-1,-1,89,-1,-1,91,93,-1,-1,95,97,99,-1,101,103,-1,105,-1,-1,-1,-1,107,109,-1,111,113,-1,-1,-1,115,117,119,121,123,125,-1,-1,-1,127,-1,-1,-1,-1,129,131,-1,-1,133,-1,-1,-1,-1,-1,135,-1,137,139,-1,141,-1,-1,143,145,147,149,-1,151,153,-1,155,157,-1,-1,-1,159,-1,-1,161,-1,-1,163,-1,-1,165,-1,167,169,-1,-1,171,-1,173,-1,175,177,-1,179,181,183,-1,-1,-1,-1,185,187,189,-1,-1,-1,-1,-1,-1,191,193,195,-1,-1,-1,-1,-1,197,-1,-1,-1,199,201,203,-1,205,-1,207,-1,-1,-1,-1,-1,-1,209,211,-1,213,-1,-1,215,-1,217,219,221,223,-1,-1,-1,-1,-1,-1,-1,-1,225,-1,-1,-1,-1,-1,227,229,-1,-1,231,233,-1,-1,-1,235,237,-1,239,241,-1,-1,243,245,-1,-1,-1,-1,247,249,-1,-1,-1,-1,-1,-1,-1,-1,-1,-1],"loss_changes":[2.929675E3,3.7505005E2,1.0805687E3,4.2467554E2,7.425769E1,8.488662E2,6.481378E1,4.697718E2,5.150763E1,2.4404297E0,5.4980877E1,6.9550476E0,4.9300293E2,2.886E1,5.621033E-1,3.5909576E0,2.6359589E1,2.3544702E2,2.0239258E0,0E0,7.662323E1,2.7992344E-1,1.37375145E1,0E0,1.5400173E1,1.1812012E1,2.7920593E1,3.6761993E1,8.115378E0,0E0,0E0,4.058426E0,2.110653E0,3.0281597E1,2.805542E0,1.4536163E1,0E0,2.1571045E0,0E0,3.779068E1,1.8552246E0,0E0,0E0,1.3562107E1,1.4921494E0,0E0,0E0,7.307373E0,1.3434025E1,6.898986E1,1.4427032E0,1.6671402E1,1.2715988E1,8.941021E0,0E0,0E0,2.784464E0,0E0,0E0,1.2414421E1,4.0558815E-2,0E0,0E0,4.6549606E-1,1.9375704E1,1.0769411E1,0E0,3.86649E0,3.1791992E0,0E0,8.457015E0,0E0,0E0,0E0,0E0,1.0736257E1,3.1079102E0,0E0,7.7795124E-1,2.7992344E-1,0E0,0E0,0E0,5.572624E0,1.4077068E1,6.825714E-1,8.509188E0,5.473541E0,3.972415E0,0E0,0E0,0E0,4.356945E0,0E0,0E0,0E0,0E0,1.49436E-1,4.631854E0,0E0,0E0,2.691104E0,0E0,0E0,0E0,0E0,0E0,6.1682034E-1,0E0,1.3110352E0,5.83749E0,0E0,6.122589E-2,0E0,0E0,1.1920502E1,4.817993E0,2.1110607E1,1.7201836E1,0E0,7.1603394E-1,7.1143675E-1,0E0,7.9296145E0,9.10573E-1,0E0,0E0,0E0,1.1905556E0,0E0,0E0,8.9617E0,0E0,0E0,3.797879E0,0E0,0E0,5.005615E0,0E0,6.2969284E0,3.80543E0,0E0,0E0,6.704337E0,0E0,3.904808E0,0E0,3.2448235E0,1.3610164E1,0E0,1.1626007E1,2.2988167E0,1.4951935E0,0E0,0E0,0E0,0E0,2.2901154E-1,2.9303474E0,1.1150837E0,0E0,0E0,0E0,0E0,0E0,0E0,5.040078E0,4.7322006E0,4.306488E-1,0E0,0E0,0E0,0E0,0E0,2.3394165E0,0E0,0E0,0E0,8.687912E0,4.816166E0,9.4509065E-1,0E0,4.640335E0,0E0,9.637525E0,0E0,0E0,0E0,0E0,0E0,0E0,2.0392814E0,1.7313004E0,0E0,3.2776613E0,0E0,0E0,5.073929E-1,0E0,8.695788E0,5.1101255E-1,6.2519836E0,3.7610245E-1,0E0,0E0,0E0,0E0,0E0,0E0,0E0,0E0,5.528825E0,0E0,0E0,0E0,0E0,0E0,2.2908936E0,7.0442967E0,0E0,0E0,2.3544312E-2,7.5529604E0,0E0,0E0,0E0,5.4638257E0,1.5989145E0,0E0,4.438127E0,1.4088864E0,0E0,0E0,1.5270032E0,5.150604E-1,0E0,0E0,0E0,0E0,2.063898E0,2.4138703E0,0E0,0E0,0E0,0E0,0E0,0E0,0E0,0E0,0E0,0E0],"parents":[2147483647,0,0,1,1,2,2,3,3,4,4,5,5,6,6,7,7,8,8,9,9,10,10,11,11,12,12,13,13,14,14,15,15,16,16,17,17,18,18,20,20,21,21,22,22,24,24,25,25,26,26,27,27,28,28,31,31,32,32,33,33,34,34,35,35,37,37,39,39,40,40,43,43,44,44,47,47,48,48,49,49,50,50,51,51,52,52,53,53,56,56,59,59,60,60,63,63,64,64,65,65,67,67,68,68,70,70,75,75,76,76,78,78,79,79,83,83,84,84,85,85,86,86,87,87,88,88,92,92,97,97,98,98,101,101,107,107,109,109,110,110,112,112,115,115,116,116,117,117,118,118,120,120,121,121,123,123,124,124,128,128,131,131,134,134,137,137,139,139,140,140,143,143,145,145,147,147,148,148,150,150,151,151,152,152,157,157,158,158,159,159,166,166,167,167,168,168,174,174,178,178,179,179,180,180,182,182,184,184,191,191,192,192,194,194,197,197,199,199,200,200,201,201,202,202,211,211,217,217,218,218,221,221,222,222,226,226,227,227,229,229,230,230,233,233,234,234,239,239,240,240],"right_children":[2,4,6,8,10,12,14,16,18,20,22,24,26,28,30,32,34,36,38,-1,40,42,44,-1,46,48,50,52,54,-1,-1,56,58,60,62,64,-1,66,-1,68,70,-1,-1,72,74,-1,-1,76,78,80,82,84,86,88,-1,-1,90,-1,-1,92,94,-1,-1,96,98,100,-1,102,104,-1,106,-1,-1,-1,-1,108,110,-1,112,114,-1,-1,-1,116,118,120,122,124,126,-1,-1,-1,128,-1,-1,-1,-1,130,132,-1,-1,134,-1,-1,-1,-1,-1,136,-1,138,140,-1,142,-1,-1,144,146,148,150,-1,152,154,-1,156,158,-1,-1,-1,160,-1,-1,162,-1,-1,164,-1,-1,166,-1,168,170,-1,-1,172,-1,174,-1,176,178,-1,180,182,184,-1,-1,-1,-1,186,188,190,-1,-1,-1,-1,-1,-1,192,194,196,-1,-1,-1,-1,-1,198,-1,-1,-1,200,202,204,-1,206,-1,208,-1,-1,-1,-1,-1,-1,210,212,-1,214,-1,-1,216,-1,218,220,222,224,-1,-1,-1,-1,-1,-1,-1,-1,226,-1,-1,-1,-1,-1,228,230,-1,-1,232,234,-1,-1,-1,236,238,-1,240,242,-1,-1,244,246,-1,-1,-1,-1,248,250,-1,-1,-1,-1,-1,-1,-1,-1,-1,-1],"split_conditions":[-8.9123404E-1,7.998526E-1,1.5127138E0,1.7679352E0,1.5464729E0,-2.5917447E0,9.844163E-1,1.3624573E0,2.32447E0,6.028605E-1,1.5963478E0,-2.7202656E0,1.6465062E0,1.1420676E0,1.527022E0,1.3102772E0,1.2352079E0,1.1664337E0,9.6989304E-1,1.425717E-1,1.1495109E0,1.273335E0,5.8206505E-1,1.4125772E-1,6.361255E-2,1.4956151E0,1.9173611E0,4.0066382E-1,2.0473726E0,4.1888803E-2,1.3166021E-1,7.0536065E-1,7.115238E-2,-3.5243705E-1,-1.2490716E0,-1.1549461E0,1.4054339E-1,-1.704736E0,3.0738164E-2,1.0815701E0,1.479072E0,-6.6151164E-2,-1.6414147E-2,2.426274E0,1.4946202E0,-4.6216648E-2,1.0521765E-1,-2.3761914E0,1.507743E0,1.0690961E0,-1.2981468E0,-4.282585E-1,1.247436E0,6.5337133E-1,8.453374E-2,-7.4890256E-2,-4.7055063E-1,-3.9990302E-2,3.0738164E-2,1.5127138E0,4.7278818E-1,4.0920854E-2,1.3885282E-1,6.66673E-1,2.0634434E0,1.0219641E0,1.3958192E-1,1.1518232E0,1.4170495E0,1.404587E-1,1.7918428E0,-5.3836834E-2,9.462156E-2,3.0738164E-2,1.3225792E-1,-7.814891E-1,1.4015379E0,9.001774E-2,-8.79959E-1,7.3917186E-1,1.2507366E-1,3.0738164E-2,1.2896651E-1,1.5885618E0,1.711831E0,1.5441773E0,1.3172479E-1,1.2094685E0,1.7485207E0,2.3020616E-2,-4.858033E-2,-2.6754593E-2,-1.1849302E0,-5.7384938E-2,-1.6414147E-2,-7.10121E-2,-1.6414147E-2,-1.1349931E0,3.5485753E-1,-3.9990302E-2,1.0973086E-1,1.1098815E0,2.3020616E-2,2.0566335E-2,1.2428453E-1,-2.2078602E-2,1.0973086E-1,2.9469648E-1,-6.2412262E-2,-7.777392E-1,1.7806368E0,-7.2925375E-3,7.654374E-1,-6.6151164E-2,-1.6414147E-2,-5.5242115E-1,8.9442897E-1,-1.3655032E0,-1.4023538E0,4.0920854E-2,4.7278818E-1,1.4474201E0,8.197091E-2,1.1518232E0,1.6555128E0,-1.6414147E-2,8.197091E-2,7.162008E-3,-1.0235602E0,-1.6414147E-2,-6.1870236E-2,-9.347545E-1,1.0485983E-1,-6.458857E-2,-1.1095536E0,5.882109E-2,7.162008E-3,1.0039318E0,-7.411705E-2,-1.1849302E0,6.3557126E-2,-5.8324546E-2,-1.6414147E-2,-8.523974E-1,-4.161269E-2,-1.1635755E0,-7.5613277E-4,-1.6213688E0,1.5227646E0,-5.3836834E-2,1.917473E0,4.680587E-1,9.941362E-1,-7.5613277E-4,-4.6216648E-2,-3.690239E-2,8.453374E-2,2.708655E-1,-1.2704551E-1,3.4827525E-3,1.3072439E-1,-4.858033E-2,8.453374E-2,-4.6216648E-2,4.1888803E-2,-7.01674E-2,5.548349E-1,-9.838107E-1,1.0145112E0,5.1093627E-2,-3.9990302E-2,-1.6414147E-2,1.0973086E-1,1.2169518E-2,3.5812482E-1,7.162008E-3,1.0818248E-1,9.462156E-2,1.7806368E0,1.7811974E0,4.2517832E-1,9.462156E-2,-2.1225893E-1,1.24904506E-1,3.5485753E-1,-1.6414147E-2,-6.458857E-2,3.0738164E-2,-4.858033E-2,1.2169518E-2,7.789047E-2,1.0935621E0,1.2252976E0,-4.858033E-2,-1.3655032E0,-6.942435E-2,-1.6414147E-2,-8.4974456E-1,2.0566335E-2,-2.9963678E-1,-1.6888803E-1,-1.0387707E0,-1.1635755E0,-4.340107E-2,7.162008E-3,6.321127E-2,-3.9990302E-2,9.968806E-2,-3.9990302E-2,5.4314315E-2,-1.2779857E-2,1.3923858E0,-6.494083E-2,-1.6414147E-2,7.789047E-2,3.0738164E-2,1.1223073E-1,-1.1849302E0,-6.8908505E-2,5.882109E-2,1.2169518E-2,-1.1635755E0,4.4191238E-1,3.0738164E-2,1.10034004E-1,-5.8324546E-2,8.8855124E-1,-1.4023538E0,-6.884572E-2,-8.79959E-1,-3.7797213E-2,1.0485983E-1,3.0738164E-2,9.159813E-2,8.937319E-1,-3.9990302E-2,7.055568E-2,-3.9990302E-2,2.0566335E-2,-8.9461195E-1,2.0843525E-1,-4.954753E-2,7.162008E-3,-5.059283E-2,5.12038E-3,8.453374E-2,2.0566335E-2,7.162008E-3,9.462156E-2,-4.340107E-2,3.0738164E-2],"split_indices":[3,1,5,4,2,4,4,5,4,2,4,4,4,2,5,5,4,5,2,0,1,5,5,0,5,5,4,2,1,0,0,1,2,1,3,3,0,3,0,5,2,0,0,4,1,0,0,4,5,5,2,3,1,4,0,0,5,0,0,5,2,0,0,1,4,5,0,2,4,0,4,0,0,0,0,1,5,0,2,5,0,0,0,5,5,5,4,2,5,0,0,0,2,0,0,0,0,3,1,0,0,1,0,0,0,0,0,5,0,3,3,0,3,0,0,1,4,2,1,0,2,1,0,2,1,0,0,0,3,0,0,3,0,0,3,0,0,1,0,2,2,0,0,1,0,1,0,2,5,0,5,2,3,0,0,0,0,1,3,2,0,0,0,0,0,0,2,1,4,0,0,0,0,0,2,0,0,0,3,5,3,0,1,0,1,0,0,0,0,0,0,1,2,0,2,0,0,3,0,4,2,2,1,0,0,0,0,0,0,0,0,1,0,0,0,0,0,2,4,0,0,1,3,0,0,0,2,1,0,2,3,0,0,4,3,0,0,0,0,1,1,0,0,0,0,0,0,0,0,0,0],"split_type":[0,0,0,0,0,0,0,0,0,0,0,0,0,0,0,0,0,0,0,0,0,0,0,0,0,0,0,0,0,0,0,0,0,0,0,0,0,0,0,0,0,0,0,0,0,0,0,0,0,0,0,0,0,0,0,0,0,0,0,0,0,0,0,0,0,0,0,0,0,0,0,0,0,0,0,0,0,0,0,0,0,0,0,0,0,0,0,0,0,0,0,0,0,0,0,0,0,0,0,0,0,0,0,0,0,0,0,0,0,0,0,0,0,0,0,0,0,0,0,0,0,0,0,0,0,0,0,0,0,0,0,0,0,0,0,0,0,0,0,0,0,0,0,0,0,0,0,0,0,0,0,0,0,0,0,0,0,0,0,0,0,0,0,0,0,0,0,0,0,0,0,0,0,0,0,0,0,0,0,0,0,0,0,0,0,0,0,0,0,0,0,0,0,0,0,0,0,0,0,0,0,0,0,0,0,0,0,0,0,0,0,0,0,0,0,0,0,0,0,0,0,0,0,0,0,0,0,0,0,0,0,0,0,0,0,0,0,0,0,0,0,0,0,0,0,0,0,0,0,0,0],"sum_hessian":[2.0698691E3,6.2495074E2,1.4449185E3,3.129237E2,3.1202707E2,1.2599886E3,1.8492984E2,1.5489275E2,1.5803094E2,2.8983548E2,2.219158E1,5.5142715E1,1.204846E3,1.4659892E2,3.8330914E1,1.0176745E2,5.3125298E1,7.73343E1,8.0696655E1,1.5422028E2,1.3561522E2,8.069666E0,1.4121915E1,4.7521362E1,7.621351E0,1.1595662E3,4.527979E1,1.2866634E2,1.793259E1,1.3449442E0,3.6985966E1,9.952588E1,2.2415738E0,1.7484276E1,3.564102E1,2.7571358E1,4.976294E1,7.957587E1,1.1207869E0,1.7260118E1,1.18355095E2,6.948879E0,1.1207869E0,4.2589903E0,9.862925E0,1.5691017E0,6.0522494E0,1.1519448E3,7.621351E0,1.8156748E1,2.7123043E1,8.562812E1,4.3038216E1,1.6587646E1,1.3449442E0,9.593936E1,3.586518E0,1.1207869E0,1.1207869E0,1.3225286E1,4.2589903E0,1.793259E0,3.3847763E1,1.636349E1,1.1207869E1,4.034833E0,7.554104E1,1.0535397E1,6.7247214E0,1.1409611E2,4.2589903E0,2.4657311E0,1.793259E0,1.1207869E0,8.742138E0,7.621351E0,1.1443234E3,1.5691017E0,6.0522494E0,8.069666E0,1.0087082E1,1.1207869E0,2.6002256E1,2.6674728E1,5.8953392E1,3.8106754E1,4.9314623E0,1.3449443E1,3.1382034E0,1.793259E0,1.793259E0,1.5691017E0,1.1656183E1,3.1382034E0,1.1207869E0,1.5242702E1,1.1207869E0,5.6039343E0,5.6039343E0,1.1207869E0,2.9140458E0,8.742138E0,1.793259E0,1.3449442E0,5.379777E0,1.3449442E0,2.9140458E0,2.9140458E0,4.707305E0,1.1093549E3,3.496855E1,1.5691017E0,4.4831476E0,6.948879E0,1.1207869E0,6.7247214E0,1.9950006E1,3.3175293E1,2.57781E1,1.793259E0,3.6313496E1,2.9140458E0,2.0174165E0,3.586518E0,9.862925E0,1.1207869E0,2.0174165E0,1.1207869E0,1.0535397E1,1.1207869E0,4.4831476E0,3.1382034E0,2.4657311E0,5.8280916E0,2.9140458E0,1.793259E0,1.1207869E0,6.410901E1,1.0452458E3,3.2278664E1,2.6898885E0,3.3623607E0,1.1207869E0,4.034833E0,2.6898885E0,1.8605062E1,1.3449442E0,5.1556196E0,2.8019672E1,2.4657311E0,2.3312366E1,4.2589903E0,3.2054504E1,1.3449442E0,1.5691017E0,2.2415738E0,1.3449442E0,6.948879E0,2.9140458E0,2.6898885E0,7.845508E0,1.793259E0,1.3449442E0,1.5691017E0,1.3449442E0,4.9090466E1,1.5018544E1,4.034833E0,2.824383E1,1.5691017E0,1.1207869E0,1.1207869E0,2.9140458E0,1.5691017E0,1.7035961E1,1.1207869E0,4.034833E0,1.793259E0,2.6226414E1,2.0846636E1,2.4657311E0,1.793259E0,2.4657311E0,2.7795515E1,4.2589903E0,1.1207869E0,5.8280916E0,1.1207869E0,1.793259E0,1.5691017E0,1.1207869E0,2.9140458E0,1.2104499E1,1.793259E0,2.2415738E0,2.7123043E1,1.1207869E0,1.5691016E1,1.3449442E0,2.2864052E1,3.3623607E0,1.0087082E1,1.0759554E1,1.3449442E0,1.1207869E0,1.3449442E0,1.1207869E0,3.1382034E0,1.1207869E0,1.1207869E0,1.793259E0,6.0522494E0,6.0522494E0,1.1207869E0,1.1207869E0,1.1207869E0,1.457023E1,1.2552814E1,1.0311239E1,1.793259E0,1.5691017E0,3.586518E0,6.500564E0,1.1207869E0,9.638767E0,3.3623607E0,2.6898885E0,2.4657311E0,1.0087082E1,5.379777E0,4.9314623E0,2.4657311E0,1.1207869E0,3.8106754E0,2.6898885E0,1.1207869E0,1.5691017E0,1.1207869E0,1.3449442E0,2.9140458E0,2.4657311E0,3.8106754E0,1.1207869E0,2.0174165E0,1.793259E0,1.3449442E0,1.3449442E0,1.1207869E0,1.793259E0,1.3449442E0,1.1207869E0],"tree_param":{"num_deleted":"0","num_feature":"7","num_nodes":"251","size_leaf_vector":"1"}},{"base_weights":[-1.7847454E-2,-6.998861E-1,1.5817529E0,-9.486448E-1,1.1434575E0,1.1528804E0,2.3966413E0,2.481624E0,-1.1055344E0,9.063862E-1,1.6058747E0,5.6747526E-1,2.4501278E0,2.5549772E0,1.0072716E0,1.2731576E-1,-1.7859433E-2,-1.3896759E0,-3.357328E-1,1.9916257E-1,1.1477088E0,-4.9562294E-2,1.7161002E0,-1.2175084E0,1.8840896E0,1.9786742E0,1.2828675E-1,1.4823036E0,1.2901002E-1,-1.7698346E-1,1.1854152E-1,-1.4081632E0,-2.7002952E-1,-1.364098E0,1.0794663E0,5.739986E-1,-7.168958E-1,8.0074465E-1,1.7701976E0,1.8011295E0,1.3527761E-1,-7.260429E-2,-2.6507357E-1,2.121495E0,-6.0874456E-1,2.1520982E0,7.944024E-1,8.628057E-2,6.9085355E-3,-1.0821652E0,9.440272E-2,7.439471E-2,-1.4188021E0,7.379416E-2,-7.0680255E-1,-1.4118414E0,-1.6888306E-1,1.680761E0,-1.1753192E0,-6.438031E-1,8.0031955E-1,-9.645788E-1,2.934882E-2,1.4713695E0,2.0850872E-1,2.0885541E0,4.7166723E-1,1.4903764E0,1.16343334E-1,-4.5655075E-2,6.0285866E-2,3.3524662E-1,-7.596829E-1,1.1668193E0,2.2396114E0,-1.0714958E0,7.661385E-2,4.475958E-2,2.251739E0,7.4228205E-2,-2.6637921E-2,-1.2409692E0,3.4232293E-3,8.5025114E-1,-5.241188E-2,-1.4256762E0,-9.3858117E-1,-7.353248E-3,-1.0825881E0,-7.3387824E-2,-1.0381832E0,7.4579835E-1,-8.439767E-1,2.0546162E0,9.545385E-1,-3.4500292E-1,-7.0839584E-2,-1.2057154E-2,-4.2409267E-2,9.133355E-1,-2.1285422E-2,7.159307E-3,-1.1562804E0,1.8852917E0,-9.257681E-3,-4.6474397E-2,3.739523E-1,-4.0248357E-2,2.2646415E0,-5.2960057E-2,7.281415E-2,1.8114202E0,5.967583E-1,-7.6724267E-1,9.2910194E-1,-1.1813967E0,6.263631E-1,2.1106715E0,-6.2048633E-2,2.497221E0,1.8445648E0,-6.389283E-2,2.0255268E-2,2.9046843E-2,1.15663126E-1,-6.637472E-2,-1.7173728E-2,1.0801159E-2,5.4672103E-2,-7.157425E-2,-1.0884581E0,7.243087E-2,-1.2376251E0,-5.5579133E-2,7.6455854E-2,-1.1381296E-2,-6.3377544E-2,9.903557E-2,-7.042658E-2,-1.5749117E-2,6.1606016E-2,-7.289475E-4,-5.5709686E-2,1.0589855E0,2.2530355E0,-6.8907894E-2,2.1579056E0,-5.9652846E-2,6.6486263E-1,1.1053933E0,-2.1974333E-1,-6.283677E-2,-1.5912179E-2,9.198936E-1,1.0317399E-1,9.624755E-1,-5.5503048E-2,1.4234434E0,1.1525987E-1,2.7652089E-2,2.3682666E0,5.2442026E-1,1.9967428E0,1.3951435E0,-4.1628238E-2,-5.395707E-2,6.324348E-3,1.3014494E0,-1.3314647E-2,-6.697064E-2,-7.335976E-4,-6.726661E-4,4.8050575E-2,9.5732874E-1,1.1852898E-1,2.889416E-2,1.2591763E-1,-2.980693E-1,2.313564E0,1.5004851E-2,-6.370216E-2,-6.819977E-2,-9.3093904E-4,-5.357758E-2,9.125103E-1,1.9749273E0,-9.9612594E-1,2.300982E0,3.0150041E-2,4.7231913E-3,2.3030703E0,-3.855993E-2,6.907632E-2,7.226551E-1,8.545613E-2,2.0776704E-2,-4.0696867E-2,9.5949806E-2,-3.0112756E-2,1.4636062E-2,7.283501E-2,-8.839584E-3,1.054526E-1,-1.22553356E-1,6.713178E-2,1.22189835E-1,2.7798241E-2,6.766615E-2,-4.3206207E-2,2.0820947E0,1.9470429E-2,8.777446E-2,5.4224795E-3,-4.687671E-2,1.0156883E0,-7.811889E-3,8.9984104E-2,-7.302459E-3,8.342555E-2,-8.783251E-1,6.469425E-2,4.5002017E-2,1.17978506E-1,1.3318853E0,-1.5720148E-2,1.0892304E-1,1.9430853E-2,-1.5749117E-2,-5.5486172E-2,9.9742115E-1,1.1738833E-1,1.0693748E0,1.22470856E-1,1.1031743E0,-4.770403E-1,2.5826907E-1,-5.695979E-1,2.2294881E0,9.6121156E-1,1.1224196E-2,7.468452E-2,-6.0270984E-2,-3.330454E-1,8.3479054E-2,1.9453881E-2,6.5755785E-2,6.77601E-3,-6.991129E-3,8.898743E-2,8.585973E-2,5.9207094E-1,-4.2262476E-2,7.6396535E-3,-5.324622E-2,7.0544505E-1,-6.371608E-2,5.225918E-1,1.19287685E-1,1.088921E0,-2.2338083E-2,8.914247E-2,-4.8410676E-2,2.048162E-2,9.909082E-1,-1.07690945E-1,2.8883597E-1,8.547852E-2,6.51836E-2,-1.6768001E-2,5.570639E-3,7.204651E-2,2.133022E-2,6.2276103E-2,-3.8729988E-2,2.9998785E-2,6.467614E-1,-4.3424615E-1,1.075033E0,-2.1848954E-2,-4.0246084E-2,7.0961537E-3,1.4765287E-2,8.0821104E-2],"categories":[],"categories_nodes":[],"categories_segments":[],"categories_sizes":[],"default_left":[0,0,0,0,0,0,0,0,0,0,0,0,0,0,0,0,0,0,0,0,0,0,0,0,0,0,0,0,0,0,0,0,0,0,0,0,0,0,0,0,0,0,0,0,0,0,0,0,0,0,0,0,0,0,0,0,0,0,0,0,0,0,0,0,0,0,0,0,0,0,0,0,0,0,0,0,0,0,0,0,0,0,0,0,0,0,0,0,0,0,0,0,0,0,0,0,0,0,0,0,0,0,0,0,0,0,0,0,0,0,0,0,0,0,0,0,0,0,0,0,0,0,0,0,0,0,0,0,0,0,0,0,0,0,0,0,0,0,0,0,0,0,0,0,0,0,0,0,0,0,0,0,0,0,0,0,0,0,0,0,0,0,0,0,0,0,0,0,0,0,0,0,0,0,0,0,0,0,0,0,0,0,0,0,0,0,0,0,0,0,0,0,0,0,0,0,0,0,0,0,0,0,0,0,0,0,0,0,0,0,0,0,0,0,0,0,0,0,0,0,0,0,0,0,0,0,0,0,0,0,0,0,0,0,0,0,0,0,0,0,0,0,0,0,0,0,0,0,0,0,0,0,0,0,0,0,0,0,0,0,0,0,0,0,0,0,0,0,0,0,0,0,0,0,0,0,0,0,0,0,0,0,0],"id":1,"left_children":[1,3,5,7,9,11,13,15,17,19,21,23,25,27,29,-1,-1,31,33,35,37,-1,39,41,43,45,-1,47,-1,49,-1,51,53,55,57,59,61,63,65,67,69,-1,71,73,75,77,79,-1,-1,81,-1,83,85,-1,87,89,91,93,95,97,99,101,-1,103,105,107,109,111,-1,-1,-1,113,115,117,119,121,-1,-1,123,-1,-1,125,-1,127,-1,129,131,133,135,-1,137,139,141,143,145,147,-1,-1,-1,149,-1,-1,151,153,155,-1,157,-1,159,-1,-1,161,163,165,167,169,171,173,-1,175,177,-1,-1,-1,-1,-1,-1,-1,-1,-1,179,-1,181,-1,-1,-1,-1,183,-1,-1,-1,-1,-1,185,187,-1,189,-1,191,193,195,-1,-1,197,-1,199,-1,201,203,-1,205,207,209,211,213,-1,-1,215,-1,-1,-1,-1,-1,217,-1,-1,-1,219,221,-1,-1,-1,-1,-1,223,225,227,229,-1,-1,231,-1,-1,233,-1,-1,-1,-1,-1,-1,-1,-1,-1,235,-1,-1,-1,-1,-1,237,-1,-1,-1,-1,239,-1,-1,-1,-1,241,-1,-1,-1,243,-1,-1,-1,-1,-1,245,-1,247,-1,249,251,253,255,257,259,-1,-1,-1,261,-1,-1,-1,-1,-1,-1,-1,263,-1,-1,-1,265,-1,267,-1,269,-1,-1,-1,-1,271,273,275,-1,-1,-1,-1,-1,-1,-1,-1,-1,277,279,281,-1,-1,-1,-1,-1],"loss_changes":[2.2754153E3,6.7156177E2,2.1512366E2,6.96376E2,1.7653488E1,3.1027533E2,4.4515137E1,1.1318298E1,2.6927124E2,1.9830055E1,1.8242294E1,6.6994446E2,1.8621826E0,1.3568115E0,3.8446766E1,0E0,0E0,1.8257202E1,4.8724115E2,1.1094134E1,1.7463272E1,0E0,7.25618E0,2.6694153E1,9.828235E1,4.3370895E0,0E0,1.9689932E0,0E0,2.7340927E1,0E0,1.4073242E1,1.3139755E1,1.0817841E1,1.9318219E2,6.7531304E0,3.627183E0,2.2712135E1,1.1607269E1,5.1691284E0,5.5103455E0,0E0,7.72985E0,1.42854E1,1.6530725E1,1.1272125E0,5.6874137E0,0E0,0E0,1.9204245E0,0E0,7.2144084E0,1.564331E0,0E0,3.5048952E0,2.3659973E0,5.9264174E0,2.837918E1,5.5822334E0,1.3297665E-1,3.0951157E0,1.9374051E0,0E0,1.6573933E1,6.361576E0,1.4138649E1,1.2529763E1,9.249512E0,0E0,0E0,0E0,8.612827E0,8.986992E0,4.486126E1,8.854797E0,4.462309E0,0E0,0E0,9.784851E-1,0E0,0E0,2.3354912E-1,0E0,5.1107216E-1,0E0,1.3623047E-1,1.2740544E1,1.1332684E1,1.0852194E0,0E0,1.1784836E1,2.5411634E0,1.19502E0,1.201651E1,1.1482335E2,7.7677894E0,0E0,0E0,0E0,4.2037363E0,0E0,0E0,2.0811176E-1,1.73452E0,8.44641E0,0E0,7.6010785E0,0E0,2.7780075E0,0E0,0E0,5.154106E0,5.6689205E0,1.4666634E0,4.0384107E0,2.0386038E0,8.57584E-1,1.8443375E0,0E0,1.6773376E0,5.6999283E1,0E0,0E0,0E0,0E0,0E0,0E0,0E0,0E0,0E0,5.2320957E0,0E0,2.1570683E0,0E0,0E0,0E0,0E0,8.335627E0,0E0,0E0,0E0,0E0,0E0,2.8323563E1,3.351654E0,0E0,7.772705E0,0E0,5.5520506E0,2.3993645E0,1.648867E0,0E0,0E0,8.90386E0,0E0,9.635165E-1,0E0,6.481488E0,7.179616E0,0E0,1.5743027E0,6.4970617E0,2.258278E0,2.0909433E0,7.6666603E0,0E0,0E0,4.997755E0,0E0,0E0,0E0,0E0,0E0,3.5404E0,0E0,0E0,0E0,1.1250267E1,8.7335205E-1,0E0,0E0,0E0,0E0,0E0,3.0423083E0,2.3886795E0,3.5890102E-2,1.1867676E0,0E0,0E0,1.8725281E0,0E0,0E0,5.711633E0,0E0,0E0,0E0,0E0,0E0,0E0,0E0,0E0,0E0,3.7306008E0,0E0,0E0,0E0,0E0,0E0,1.3285599E0,0E0,0E0,0E0,0E0,1.0758405E0,0E0,0E0,0E0,0E0,1.1359344E0,0E0,0E0,0E0,6.210561E-1,0E0,0E0,0E0,0E0,0E0,8.467319E-1,0E0,4.0397053E0,0E0,1.784358E0,9.2537624E-1,7.883861E0,8.358741E0,5.769577E-1,5.6551647E0,0E0,0E0,0E0,2.5730128E0,0E0,0E0,0E0,0E0,0E0,0E0,0E0,1.8921053E0,0E0,0E0,0E0,3.5268245E0,0E0,3.5391777E0,0E0,1.211051E0,0E0,0E0,0E0,0E0,6.819439E-2,1.9865001E0,2.350326E0,0E0,0E0,0E0,0E0,0E0,0E0,0E0,0E0,0E0,3.1386752E0,8.074568E-1,1.3845091E0,0E0,0E0,0E0,0E0,0E0],"parents":[2147483647,0,0,1,1,2,2,3,3,4,4,5,5,6,6,7,7,8,8,9,9,10,10,11,11,12,12,13,13,14,14,17,17,18,18,19,19,20,20,22,22,23,23,24,24,25,25,27,27,29,29,31,31,32,32,33,33,34,34,35,35,36,36,37,37,38,38,39,39,40,40,42,42,43,43,44,44,45,45,46,46,49,49,51,51,52,52,54,54,55,55,56,56,57,57,58,58,59,59,60,60,61,61,63,63,64,64,65,65,66,66,67,67,71,71,72,72,73,73,74,74,75,75,78,78,81,81,83,83,85,85,86,86,87,87,88,88,90,90,91,91,92,92,93,93,94,94,95,95,99,99,102,102,103,103,104,104,106,106,108,108,111,111,112,112,113,113,114,114,115,115,116,116,117,117,119,119,120,120,130,130,132,132,137,137,143,143,144,144,146,146,148,148,149,149,150,150,153,153,155,155,157,157,158,158,160,160,161,161,162,162,163,163,164,164,167,167,173,173,177,177,178,178,184,184,185,185,186,186,187,187,190,190,193,193,203,203,209,209,214,214,219,219,223,223,229,229,231,231,233,233,234,234,235,235,236,236,237,237,238,238,242,242,250,250,254,254,256,256,258,258,263,263,264,264,265,265,275,275,276,276,277,277],"right_children":[2,4,6,8,10,12,14,16,18,20,22,24,26,28,30,-1,-1,32,34,36,38,-1,40,42,44,46,-1,48,-1,50,-1,52,54,56,58,60,62,64,66,68,70,-1,72,74,76,78,80,-1,-1,82,-1,84,86,-1,88,90,92,94,96,98,100,102,-1,104,106,108,110,112,-1,-1,-1,114,116,118,120,122,-1,-1,124,-1,-1,126,-1,128,-1,130,132,134,136,-1,138,140,142,144,146,148,-1,-1,-1,150,-1,-1,152,154,156,-1,158,-1,160,-1,-1,162,164,166,168,170,172,174,-1,176,178,-1,-1,-1,-1,-1,-1,-1,-1,-1,180,-1,182,-1,-1,-1,-1,184,-1,-1,-1,-1,-1,186,188,-1,190,-1,192,194,196,-1,-1,198,-1,200,-1,202,204,-1,206,208,210,212,214,-1,-1,216,-1,-1,-1,-1,-1,218,-1,-1,-1,220,222,-1,-1,-1,-1,-1,224,226,228,230,-1,-1,232,-1,-1,234,-1,-1,-1,-1,-1,-1,-1,-1,-1,236,-1,-1,-1,-1,-1,238,-1,-1,-1,-1,240,-1,-1,-1,-1,242,-1,-1,-1,244,-1,-1,-1,-1,-1,246,-1,248,-1,250,252,254,256,258,260,-1,-1,-1,262,-1,-1,-1,-1,-1,-1,-1,264,-1,-1,-1,266,-1,268,-1,270,-1,-1,-1,-1,272,274,276,-1,-1,-1,-1,-1,-1,-1,-1,-1,278,280,282,-1,-1,-1,-1,-1],"split_conditions":[1.077627E0,1.5127138E0,1.226203E0,-2.5917447E0,1.7485207E0,2.2407658E0,1E0,2E0,8.658863E-1,-4.9023843E-1,-1.4023538E0,7.0536065E-1,2.426274E0,1.1259003E0,1.9639578E0,1.2731576E-1,-1.7859433E-2,1.4625766E0,4.4270638E-1,4.2636582E-1,7.998526E-1,-4.9562294E-2,1.5464729E0,1.8893126E0,1.4086658E0,1.0746667E0,1.2828675E-1,1.1148279E0,1.2901002E-1,1.2701905E0,1.1854152E-1,-2.3761914E0,-1.4934049E0,4.0257972E-1,1.1967459E0,-1.2023696E0,1.6975234E0,-6.1035544E-1,1.1420676E0,5.3299135E-1,7.3362464E-1,-7.260429E-2,-7.027806E-1,9.556627E-1,1.9639578E0,-1.0044527E0,-7.0621085E-1,8.628057E-2,6.9085355E-3,1.8893126E0,9.440272E-2,-6.762672E-1,7.998526E-1,7.379416E-2,-8.79959E-1,1.6181979E-1,6.755864E-1,6.702614E-1,1.3442702E0,1E0,1.2094685E0,-1.7742915E0,2.934882E-2,2.8219977E-1,-2.394468E-1,1.4531699E-1,1.4509187E0,-1.4916183E-1,1.16343334E-1,-4.5655075E-2,6.0285866E-2,-1.1423852E0,1.1518232E0,2.8464097E-1,6.702614E-1,2E0,7.661385E-2,4.475958E-2,-1.4760342E0,7.4228205E-2,-2.6637921E-2,5.974876E-1,3.4232293E-3,-1.4062631E-1,-5.241188E-2,1.4015379E0,8.4057957E-1,-8.9461195E-1,-7.027806E-1,-7.3387824E-2,-1.1146885E0,1.1266241E0,4.126114E-1,1.0039318E0,1.2701905E0,1.3923858E0,-7.0839584E-2,-1.2057154E-2,-4.2409267E-2,-6.407134E-1,-2.1285422E-2,7.159307E-3,1.6987737E0,-1.3787835E0,-1.0523815E0,-4.6474397E-2,-1.2909849E-1,-4.0248357E-2,1.5441773E0,-5.2960057E-2,7.281415E-2,-4.116773E-1,-4.081528E-1,2.1582723E0,-8.125581E-1,4.7643924E-1,1.5464729E0,1.5762845E0,-6.2048633E-2,6.3557126E-2,1.2701905E0,-6.389283E-2,2.0255268E-2,2.9046843E-2,1.15663126E-1,-6.637472E-2,-1.7173728E-2,1.0801159E-2,5.4672103E-2,-7.157425E-2,-1.2264842E0,7.243087E-2,1.226203E0,-5.5579133E-2,7.6455854E-2,-1.1381296E-2,-6.3377544E-2,1.3141193E0,-7.042658E-2,-1.5749117E-2,6.1606016E-2,-7.289475E-4,-5.5709686E-2,3.5812482E-1,2E0,-6.8907894E-2,-1.287506E0,-5.9652846E-2,-4.5483994E-1,4.0066382E-1,1E0,-6.283677E-2,-1.5912179E-2,-3.1970012E-1,1.0317399E-1,8.8409966E-1,-5.5503048E-2,3.5485753E-1,2E0,2.7652089E-2,1.7289448E0,1.8074982E0,1.1777053E0,1.7811974E0,1.4474201E0,-5.395707E-2,6.324348E-3,-1.2023696E0,-1.3314647E-2,-6.697064E-2,-7.335976E-4,-6.726661E-4,4.8050575E-2,9.2979467E-1,1.1852898E-1,2.889416E-2,1.2591763E-1,1.7679352E0,1.3141193E0,1.5004851E-2,-6.370216E-2,-6.819977E-2,-9.3093904E-4,-5.357758E-2,1.6973922E0,9.974559E-1,-1.0989778E0,-1.5388769E0,3.0150041E-2,4.7231913E-3,5.530547E-1,-3.855993E-2,6.907632E-2,1E0,8.545613E-2,2.0776704E-2,-4.0696867E-2,9.5949806E-2,-3.0112756E-2,1.4636062E-2,7.283501E-2,-8.839584E-3,1.054526E-1,2.4751537E-1,6.713178E-2,1.22189835E-1,2.7798241E-2,6.766615E-2,-4.3206207E-2,-3.798901E-1,1.9470429E-2,8.777446E-2,5.4224795E-3,-4.687671E-2,1.6555128E0,-7.811889E-3,8.9984104E-2,-7.302459E-3,8.342555E-2,1E0,6.469425E-2,4.5002017E-2,1.17978506E-1,2.5210476E-1,-1.5720148E-2,1.0892304E-1,1.9430853E-2,-1.5749117E-2,-5.5486172E-2,2.6585606E-1,1.1738833E-1,1.1056268E0,1.22470856E-1,-8.9461195E-1,-2.1225893E-1,1.6181979E-1,4.7278818E-1,7.474757E-1,3.5485753E-1,1.1224196E-2,7.468452E-2,-6.0270984E-2,1.6480505E-2,8.3479054E-2,1.9453881E-2,6.5755785E-2,6.77601E-3,-6.991129E-3,8.898743E-2,8.585973E-2,-1.4934049E0,-4.2262476E-2,7.6396535E-3,-5.324622E-2,1.2749532E-1,-6.371608E-2,1.1420676E0,1.19287685E-1,-1.0620433E0,-2.2338083E-2,8.914247E-2,-4.8410676E-2,2.048162E-2,1.628172E0,-2.4648046E-3,5.1292807E-1,8.547852E-2,6.51836E-2,-1.6768001E-2,5.570639E-3,7.204651E-2,2.133022E-2,6.2276103E-2,-3.8729988E-2,2.9998785E-2,-2.1152261E-1,6.2575704E-1,-5.327035E-1,-2.1848954E-2,-4.0246084E-2,7.0961537E-3,1.4765287E-2,8.0821104E-2],"split_indices":[4,5,5,4,5,4,0,0,1,4,1,1,4,4,4,0,0,5,4,1,1,0,2,4,2,2,0,4,0,1,0,4,4,4,2,1,5,2,2,4,4,0,1,1,4,1,5,0,0,4,0,1,1,0,2,4,2,2,2,0,2,4,0,4,4,2,1,4,0,0,0,2,2,2,2,0,0,0,5,0,0,1,0,5,0,5,1,1,1,0,5,1,4,1,1,1,0,0,0,4,0,0,1,1,1,0,4,0,5,0,0,1,2,4,2,1,2,4,0,2,1,0,0,0,0,0,0,0,0,0,2,0,5,0,0,0,0,1,0,0,0,0,0,2,0,0,5,0,5,2,0,0,0,4,0,4,0,1,0,0,5,5,1,5,1,0,0,1,0,0,0,0,0,1,0,0,0,4,1,0,0,0,0,0,1,1,5,5,0,0,4,0,0,0,0,0,0,0,0,0,0,0,0,1,0,0,0,0,0,4,0,0,0,0,1,0,0,0,0,0,0,0,0,4,0,0,0,0,0,2,0,2,0,1,1,4,2,1,1,0,0,0,5,0,0,0,0,0,0,0,4,0,0,0,1,0,2,0,4,0,0,0,0,5,1,4,0,0,0,0,0,0,0,0,0,2,4,2,0,0,0,0,0],"split_type":[0,0,0,0,0,0,0,0,0,0,0,0,0,0,0,0,0,0,0,0,0,0,0,0,0,0,0,0,0,0,0,0,0,0,0,0,0,0,0,0,0,0,0,0,0,0,0,0,0,0,0,0,0,0,0,0,0,0,0,0,0,0,0,0,0,0,0,0,0,0,0,0,0,0,0,0,0,0,0,0,0,0,0,0,0,0,0,0,0,0,0,0,0,0,0,0,0,0,0,0,0,0,0,0,0,0,0,0,0,0,0,0,0,0,0,0,0,0,0,0,0,0,0,0,0,0,0,0,0,0,0,0,0,0,0,0,0,0,0,0,0,0,0,0,0,0,0,0,0,0,0,0,0,0,0,0,0,0,0,0,0,0,0,0,0,0,0,0,0,0,0,0,0,0,0,0,0,0,0,0,0,0,0,0,0,0,0,0,0,0,0,0,0,0,0,0,0,0,0,0,0,0,0,0,0,0,0,0,0,0,0,0,0,0,0,0,0,0,0,0,0,0,0,0,0,0,0,0,0,0,0,0,0,0,0,0,0,0,0,0,0,0,0,0,0,0,0,0,0,0,0,0,0,0,0,0,0,0,0,0,0,0,0,0,0,0,0,0,0,0,0,0,0,0,0,0,0,0,0,0,0,0,0],"sum_hessian":[2.0836292E3,1.4611749E3,6.224543E2,1.2878635E3,1.7331148E2,4.0940225E2,2.1305205E2,5.567853E1,1.2321849E3,1.1652945E2,5.678203E1,2.8309033E2,1.2631191E2,1.9050291E2,2.2549131E1,5.453873E1,1.139802E0,8.9940173E2,3.3278323E2,3.0111002E1,8.641845E1,1.9863769E0,5.479565E1,1.2020252E2,1.6288782E2,2.844141E1,9.78705E1,5.7497473E0,1.8475316E2,1.2533741E1,1.0015389E1,8.8453876E2,1.4862983E1,1.9275352E2,1.4002971E2,2.1632671E1,8.478329E0,5.6957638E1,2.9460812E1,5.1866493E1,2.9291553E0,9.602715E1,2.4175364E1,1.4886006E2,1.4027752E1,2.4095627E1,4.3457828E0,4.628171E0,1.1215767E0,9.044962E0,3.4887793E0,6.259624E0,8.782791E2,2.4981337E0,1.2364849E1,1.8517537E2,7.5781684E0,1.1075004E2,2.9279673E1,3.1011527E0,1.8531519E1,7.3435683E0,1.1347611E0,2.6014921E1,3.0942717E1,2.3171524E1,6.2892876E0,3.5008484E1,1.685801E1,1.5540841E0,1.3750714E0,1.1066213E1,1.3109152E1,1.7587511E1,1.3127255E2,1.1945454E1,2.0822988E0,2.503221E0,2.1592405E1,2.780988E0,1.564795E0,7.879027E0,1.1659353E0,3.8449726E0,2.4146514E0,8.639436E2,1.4335547E1,4.6777406E0,7.6871085E0,1.585252E2,2.6650158E1,3.1735737E0,4.4045944E0,7.190471E1,3.8845325E1,7.143862E0,2.213581E1,1.7780404E0,1.3231124E0,1.720097E1,1.33055E0,1.120682E0,6.222886E0,2.0117575E1,5.897348E0,3.3413343E0,2.7601383E1,1.1243548E0,2.2047169E1,2.4321148E0,3.8571727E0,2.499989E1,1.00085945E1,3.7718408E0,7.294372E0,1.0164257E1,2.9448943E0,1.2723364E1,4.864147E0,7.623709E1,5.5035458E1,1.0598823E1,1.3466307E0,1.1377181E0,2.0454687E1,6.749238E0,1.1297888E0,1.5890661E0,2.2559066E0,8.4612384E2,1.7819742E1,1.1679457E0,1.3167602E1,2.8826063E0,1.7951343E0,1.7639908E0,5.9231176E0,6.726836E0,1.9923323E1,1.1083417E0,2.065232E0,1.341372E0,3.0632224E0,1.3001708E1,5.8903004E1,1.3170124E1,2.5675203E1,3.7844205E0,3.3594415E0,1.472885E1,2.4721189E0,5.1106553E0,1.1122307E0,4.094834E0,1.602274E1,3.19905E0,2.698298E0,4.5677977E0,2.3033585E1,1.6203558E0,2.0426813E1,3.6288183E0,2.1371073E1,3.920313E0,6.088281E0,2.642269E0,1.129572E0,5.494271E0,1.8001015E0,8.821501E0,1.3427563E0,1.3409405E0,1.603954E0,3.201228E0,9.522136E0,1.1389112E0,7.509818E1,9.94876E0,4.5086697E1,2.0281343E0,1.5791607E1,1.182301E1,1.3445911E0,2.6279597E0,4.0988765E0,9.020418E0,3.9812899E0,5.6856373E1,2.046631E0,1.7960494E0,2.3879154E1,1.0930588E0,2.2663827E0,1.0358804E1,4.370047E0,1.3400702E0,1.1320485E0,2.314763E0,1.780071E0,2.0343971E0,1.1646528E0,1.5926454E0,2.9751525E0,2.0049076E1,2.9845083E0,1.9275053E1,1.1517603E0,2.2882154E0,1.3406029E0,2.0012983E1,1.3580892E0,2.7779827E0,1.1423302E0,3.3570282E0,2.731253E0,1.57441E0,3.9198606E0,1.5661038E0,1.6351241E0,7.6197047E0,2.329055E0,2.0693722E0,4.3017326E1,2.9909668E0,1.1079096E0,7.6638155E0,1.3566028E0,1.1083417E0,2.8729482E0,2.7431602E0,5.4113213E1,3.4131958E0,2.0465958E1,7.9254613E0,2.4333422E0,1.105444E1,8.994637E0,1.681306E1,3.1999228E0,1.5821149E0,1.149138E0,4.0059996E0,3.6137054E0,1.6346174E0,1.3563495E0,1.6201468E0,1.1230136E0,1.5603466E0,1.8528491E0,2.5282905E0,5.397171E0,1.3197674E0,1.113575E0,2.443293E0,8.611147E0,5.365711E0,3.6289253E0,1.3826946E1,2.9861135E0,1.3473444E0,1.8525784E0,1.7841495E0,1.8295559E0,3.1727571E0,2.2244139E0,6.9961224E0,1.6150243E0,1.627621E0,2.0013041E0,1.1391815E0,1.8469322E0,1.81831E0,1.3544471E0,1.0964916E0,1.1279223E0,4.750283E0,2.2458398E0,3.4105427E0,1.3397399E0,1.1250327E0,1.1208072E0,2.0309534E0,1.3795893E0],"tree_param":{"num_deleted":"0","num_feature":"7","num_nodes":"283","size_leaf_vector":"1"}},{"base_weights":[-4.051939E-2,1.4785056E0,-7.8091544E-1,8.354621E-1,2.141158E0,-1.0882162E0,1.307078E0,-6.3128597E-1,1.5425085E0,2.182921E0,2.905771E-1,2.2696106E0,-1.2644428E0,1.0520264E0,2.269452E0,-1.385368E0,1.716022E0,8.4885705E-1,2.3235211E0,1.1165339E-1,9.039411E-1,-5.897824E-1,8.891649E-2,1.1627801E-1,-1.7434208E-2,-1.368164E0,1.6699799E0,-6.738725E-1,1.0977938E0,1.2038465E-1,9.1754556E-1,-7.093013E-2,-3.0613574E-1,1.9735998E0,-3.64745E-1,-1.2231994E0,2.1467295E0,1.2134562E-1,7.702753E-1,-8.764295E-1,1.9366353E0,-1.5675585E-5,-4.3885157E-2,-1.3883463E0,-4.7930938E-1,6.463038E-1,2.2151937E0,-5.070308E-2,7.974383E-3,1.2752224E0,6.740492E-1,-5.662718E-3,8.521428E-2,2.2151044E-2,-4.389033E-2,2.1130514E0,4.2249173E-1,-4.7411833E-2,2.7540116E-2,-1.3732804E0,9.080771E-2,-1.006528E-2,2.199755E0,-5.6906488E-2,1.0158735E-1,-1.1206015E-2,-5.5222113E-2,5.1689907E-3,1.0929858E-1,-2.3753908E-1,-6.979775E-2,-7.2627896E-1,1.0615656E0,-1.1429634E0,1.0643261E-1,3.8840845E-2,1.1327268E-1,-2.0704038E-2,1.3028922E0,1.7832172E0,3.8139334E-1,1.1085012E-1,4.6452107E-3,-4.082985E-2,7.2344124E-2,-7.067505E-2,-6.7559E-1,-3.7533496E-2,8.792877E-1,5.799528E-1,1.1458236E-1,7.154645E-1,-5.705888E-2,-2.1411407E-1,-6.6042416E-2,1.9430688E-2,7.279791E-2,-6.1985016E-2,-1.5148594E-2,1.0652466E0,1.481243E0,2.0076056E0,1.716595E-2,-7.797346E-1,7.395602E-1,-5.0710607E-2,7.7509764E-3,-8.440364E-4,7.21203E-2,-4.6270918E-2,7.216435E-2,4.407045E-2,5.456868E-3,6.672869E-1,-8.332837E-1,1.4830323E0,-8.6285543E-1,1.5832791E0,2.7739325E-1,3.6635224E-2,1.0922823E-1,-5.992468E-2,-2.2534087E-1,1.2560675E-1,1.4536924E0,-3.4712456E-2,7.92486E-2,-6.303869E-2,4.9164213E-2,1.7370167E0,-1.19961105E-1,-6.3149184E-2,1.37360245E-2,1.1828635E0,1.8902826E0,-4.103728E-1,7.277216E-2,3.0266358E-2,-6.1886394E-1,1.1859862E0,-6.442047E-1,-1.8244665E-2,1.6659977E0,1.8993096E0,-4.4851094E-2,-4.242311E-2,7.373734E-1,-1.354221E-2,1.3166932E0,1.006817E-1,5.6145096E-1,-3.3107203E-2,6.9188364E-3,-4.833104E-2,6.25099E-3,1.5278924E0,-1.6531264E-2,-8.7443143E-1,3.035137E-2,2.9576365E-2,1.837054E0,5.544726E-3,1.9650311E0,-1.5868522E-2,7.106294E-2,1.008534E0,9.987905E-2,4.8954945E-2,-2.8370023E-3,9.244816E-2,4.964194E-3,-6.154741E-2,-6.530705E-2,2.8224735E-2,1.01302065E-1,1.0384881E-1,9.2541134E-1,8.4115885E-2,-1.7003804E-1,2.6862362E-2,-3.9340477E-2,-2.1564301E-2,7.9960965E-2,4.044397E-2,-5.4613554E-1,-1.23204656E-1,-4.7528464E-2,-1.3692032E-2,6.678672E-3],"categories":[],"categories_nodes":[],"categories_segments":[],"categories_sizes":[],"default_left":[0,0,0,0,0,0,0,0,0,0,0,0,0,0,0,0,0,0,0,0,0,0,0,0,0,0,0,0,0,0,0,0,0,0,0,0,0,0,0,0,0,0,0,0,0,0,0,0,0,0,0,0,0,0,0,0,0,0,0,0,0,0,0,0,0,0,0,0,0,0,0,0,0,0,0,0,0,0,0,0,0,0,0,0,0,0,0,0,0,0,0,0,0,0,0,0,0,0,0,0,0,0,0,0,0,0,0,0,0,0,0,0,0,0,0,0,0,0,0,0,0,0,0,0,0,0,0,0,0,0,0,0,0,0,0,0,0,0,0,0,0,0,0,0,0,0,0,0,0,0,0,0,0,0,0,0,0,0,0,0,0,0,0,0,0,0,0,0,0,0,0,0,0,0,0,0,0,0,0,0,0,0,0,0,0,0,0,0,0],"id":2,"left_children":[1,3,5,7,9,11,13,15,17,19,21,23,25,27,29,31,33,35,37,-1,39,41,-1,-1,-1,43,45,47,49,-1,51,-1,53,55,57,59,61,-1,63,65,67,-1,-1,69,71,73,75,-1,-1,77,79,-1,-1,-1,-1,81,83,-1,-1,85,87,-1,89,-1,-1,-1,-1,-1,-1,91,-1,93,95,97,-1,-1,-1,-1,99,101,103,-1,-1,-1,-1,-1,105,-1,107,109,-1,111,-1,113,-1,-1,-1,-1,-1,115,117,119,-1,121,123,-1,-1,-1,-1,-1,-1,-1,-1,125,127,129,131,133,135,-1,-1,-1,137,139,141,-1,-1,-1,-1,143,145,-1,-1,147,149,151,-1,-1,153,155,157,-1,159,161,-1,-1,163,-1,165,-1,167,-1,-1,-1,-1,169,-1,171,-1,-1,173,-1,175,-1,-1,177,-1,-1,-1,-1,-1,-1,179,-1,-1,-1,181,-1,183,-1,-1,-1,-1,-1,185,187,-1,-1,-1],"loss_changes":[2.3106426E3,2.850929E2,8.8766565E2,3.570173E2,2.4941895E1,7.156526E2,4.121875E1,2.0129291E2,1.2368286E2,1.8727783E1,1.2125402E1,9.662445E0,3.508191E2,1.19800415E1,4.5851593E0,2.6362457E0,1.5603767E1,3.3721704E2,1.5558899E1,0E0,2.7225037E1,1.0289068E0,0E0,0E0,0E0,1.918628E1,2.063913E1,1.3795551E0,9.591415E0,0E0,4.2384415E0,0E0,2.0303075E0,4.486206E0,2.6073573E0,9.699982E0,1.0012756E1,0E0,2.2144714E1,6.129813E-1,3.9331207E0,0E0,0E0,9.137695E0,1.0701708E1,4.2627167E1,7.569885E-2,0E0,0E0,5.0668945E0,1.3325483E1,0E0,0E0,0E0,0E0,4.532875E0,5.371763E0,0E0,0E0,2.6963043E-1,4.5847154E0,0E0,9.871613E0,0E0,0E0,0E0,0E0,0E0,0E0,7.9714065E0,0E0,6.7468805E0,4.9875593E-1,2.3522186E-1,0E0,0E0,0E0,0E0,2.4714203E0,2.1331787E0,1.5303328E1,0E0,0E0,0E0,0E0,0E0,1.3650043E0,0E0,1.7978399E0,8.325852E0,0E0,3.7251663E-1,0E0,7.9754515E0,0E0,0E0,0E0,0E0,0E0,3.714273E1,5.950409E0,5.7893753E-2,0E0,1.7809892E0,1.1908065E1,0E0,0E0,0E0,0E0,0E0,0E0,0E0,0E0,8.803307E0,7.7863054E0,1.5256035E1,4.243749E0,3.6327362E0,4.8726697E0,0E0,0E0,0E0,2.0199242E0,1.3761653E1,5.493374E0,0E0,0E0,0E0,0E0,1.5370163E1,4.3671227E0,0E0,0E0,4.9071846E0,3.024643E0,6.5970385E-1,0E0,0E0,1.1322662E0,4.1605453E0,3.375001E0,0E0,1.0288887E0,3.3593063E0,0E0,0E0,2.8220181E0,0E0,2.5152283E0,0E0,9.695103E-1,0E0,0E0,0E0,0E0,2.536625E0,0E0,2.4433317E0,0E0,0E0,1.1301403E0,0E0,1.4874268E0,0E0,0E0,1.3692291E1,0E0,0E0,0E0,0E0,0E0,0E0,2.0451224E0,0E0,0E0,0E0,4.941922E0,0E0,3.0369856E0,0E0,0E0,0E0,0E0,0E0,8.560518E-1,1.8859184E-1,0E0,0E0,0E0],"parents":[2147483647,0,0,1,1,2,2,3,3,4,4,5,5,6,6,7,7,8,8,9,9,10,10,11,11,12,12,13,13,14,14,15,15,16,16,17,17,18,18,20,20,21,21,25,25,26,26,27,27,28,28,30,30,32,32,33,33,34,34,35,35,36,36,38,38,39,39,40,40,43,43,44,44,45,45,46,46,49,49,50,50,55,55,56,56,59,59,60,60,62,62,69,69,71,71,72,72,73,73,78,78,79,79,80,80,86,86,88,88,89,89,91,91,93,93,99,99,100,100,101,101,103,103,104,104,113,113,114,114,115,115,116,116,117,117,118,118,122,122,123,123,124,124,129,129,130,130,133,133,134,134,135,135,138,138,139,139,140,140,142,142,143,143,146,146,148,148,150,150,155,155,157,157,160,160,162,162,165,165,172,172,176,176,178,178,184,184,185,185],"right_children":[2,4,6,8,10,12,14,16,18,20,22,24,26,28,30,32,34,36,38,-1,40,42,-1,-1,-1,44,46,48,50,-1,52,-1,54,56,58,60,62,-1,64,66,68,-1,-1,70,72,74,76,-1,-1,78,80,-1,-1,-1,-1,82,84,-1,-1,86,88,-1,90,-1,-1,-1,-1,-1,-1,92,-1,94,96,98,-1,-1,-1,-1,100,102,104,-1,-1,-1,-1,-1,106,-1,108,110,-1,112,-1,114,-1,-1,-1,-1,-1,116,118,120,-1,122,124,-1,-1,-1,-1,-1,-1,-1,-1,126,128,130,132,134,136,-1,-1,-1,138,140,142,-1,-1,-1,-1,144,146,-1,-1,148,150,152,-1,-1,154,156,158,-1,160,162,-1,-1,164,-1,166,-1,168,-1,-1,-1,-1,170,-1,172,-1,-1,174,-1,176,-1,-1,178,-1,-1,-1,-1,-1,-1,180,-1,-1,-1,182,-1,184,-1,-1,-1,-1,-1,186,188,-1,-1,-1],"split_conditions":[-8.577659E-1,7.998526E-1,1.527022E0,1.3856828E0,-8.9123404E-1,-2.5917447E0,9.6729994E-1,1.4787021E0,1.1062187E0,1.8473884E0,1.4956151E0,2E0,1.6465062E0,-1.5745643E0,1E0,7.0536065E-1,2.4751537E-1,2.2407658E0,1E0,1.1165339E-1,1.6720742E0,-8.80078E-1,8.891649E-2,1.1627801E-1,-1.7434208E-2,1.4625766E0,1.9173611E0,4.8095852E-1,1E0,1.2038465E-1,1.7485207E0,-7.093013E-2,-4.7055063E-1,1E0,-9.2971706E-1,5.974876E-1,-1.704736E0,1.2134562E-1,2.0379171E0,-2.6631176E-1,8.1772524E-1,-1.5675585E-5,-4.3885157E-2,-2.3761914E0,1.864307E0,1.0690961E0,-1.2523656E0,-5.070308E-2,7.974383E-3,-1.4023538E0,-6.904254E-1,-5.662718E-3,8.521428E-2,2.2151044E-2,-4.389033E-2,-3.5243705E-1,-3.439539E-1,-4.7411833E-2,2.7540116E-2,2.1582723E0,1.9378117E0,-1.006528E-2,2.32447E0,-5.6906488E-2,1.0158735E-1,-1.1206015E-2,-5.5222113E-2,5.1689907E-3,1.0929858E-1,-6.762672E-1,-6.979775E-2,-9.907119E-3,-1.7742915E0,7.3917186E-1,1.0643261E-1,3.8840845E-2,1.1327268E-1,-2.0704038E-2,1.6689557E0,2.708655E-1,-1.1588947E-1,1.1085012E-1,4.6452107E-3,-4.082985E-2,7.2344124E-2,-7.067505E-2,1.8340684E-1,-3.7533496E-2,-1.2070034E0,-1.1549461E0,1.1458236E-1,2.9469648E-1,-5.705888E-2,-1.524529E-1,-6.6042416E-2,1.9430688E-2,7.279791E-2,-6.1985016E-2,-1.5148594E-2,1.8532352E-1,1.3923858E0,-3.439539E-1,1.716595E-2,-2.5760108E-1,1.6975234E0,-5.0710607E-2,7.7509764E-3,-8.440364E-4,7.21203E-2,-4.6270918E-2,7.216435E-2,4.407045E-2,5.456868E-3,-8.9461195E-1,8.9442897E-1,1.6503913E0,1.5798281E0,6.818514E-2,1.6555128E0,3.6635224E-2,1.0922823E-1,-5.992468E-2,-5.2460838E-2,3.0246192E-1,2.7457184E-1,-3.4712456E-2,7.92486E-2,-6.303869E-2,4.9164213E-2,6.433397E-1,-1.6051362E-1,-6.3149184E-2,1.37360245E-2,-2.7957347E-1,9.859106E-1,2.1376474E-2,7.277216E-2,3.0266358E-2,7.3362464E-1,2.0843525E-1,1.7806368E0,-1.8244665E-2,-4.116773E-1,-7.685176E-1,-4.4851094E-2,-4.242311E-2,-2.4648046E-3,-1.354221E-2,7.7944887E-1,1.006817E-1,1.7225324E0,-3.3107203E-2,6.9188364E-3,-4.833104E-2,6.25099E-3,-1.7925683E-1,-1.6531264E-2,1.628172E0,3.035137E-2,2.9576365E-2,5.1442665E-1,5.544726E-3,1.2489184E-3,-1.5868522E-2,7.106294E-2,-2.0244893E-1,9.987905E-2,4.8954945E-2,-2.8370023E-3,9.244816E-2,4.964194E-3,-6.154741E-2,6.7061114E-1,2.8224735E-2,1.01302065E-1,1.0384881E-1,1.5885618E0,8.4115885E-2,-1.2909849E-1,2.6862362E-2,-3.9340477E-2,-2.1564301E-2,7.9960965E-2,4.044397E-2,-3.9903036E-1,-5.334475E-1,-4.7528464E-2,-1.3692032E-2,6.678672E-3],"split_indices":[3,1,5,4,3,4,4,5,5,1,5,0,4,1,0,1,1,4,0,0,4,3,0,0,0,5,4,3,0,0,5,0,5,0,3,1,3,0,4,5,5,0,0,4,3,5,1,0,0,1,3,0,0,0,0,1,1,0,0,4,4,0,4,0,0,0,0,0,0,1,0,3,4,5,0,0,0,0,5,1,3,0,0,0,0,0,1,0,3,3,0,5,0,1,0,0,0,0,0,3,1,1,0,1,5,0,0,0,0,0,0,0,0,1,4,5,3,3,1,0,0,0,1,3,3,0,0,0,0,4,3,0,0,4,1,4,0,0,4,1,3,0,1,3,0,0,1,0,1,0,5,0,0,0,0,4,0,5,0,0,3,0,3,0,0,1,0,0,0,0,0,0,3,0,0,0,5,0,4,0,0,0,0,0,3,3,0,0,0],"split_type":[0,0,0,0,0,0,0,0,0,0,0,0,0,0,0,0,0,0,0,0,0,0,0,0,0,0,0,0,0,0,0,0,0,0,0,0,0,0,0,0,0,0,0,0,0,0,0,0,0,0,0,0,0,0,0,0,0,0,0,0,0,0,0,0,0,0,0,0,0,0,0,0,0,0,0,0,0,0,0,0,0,0,0,0,0,0,0,0,0,0,0,0,0,0,0,0,0,0,0,0,0,0,0,0,0,0,0,0,0,0,0,0,0,0,0,0,0,0,0,0,0,0,0,0,0,0,0,0,0,0,0,0,0,0,0,0,0,0,0,0,0,0,0,0,0,0,0,0,0,0,0,0,0,0,0,0,0,0,0,0,0,0,0,0,0,0,0,0,0,0,0,0,0,0,0,0,0,0,0,0,0,0,0,0,0,0,0,0,0],"sum_hessian":[2.0524622E3,6.722504E2,1.3802117E3,3.423205E2,3.299299E2,1.2035569E3,1.7665483E2,1.1137771E2,2.309428E2,3.2247293E2,7.456969E0,5.9423374E1,1.1441334E3,1.4130014E2,3.5354694E1,8.460713E1,2.6770575E1,1.2341734E2,1.0752545E2,3.0958847E2,1.2884484E1,5.0639896E0,2.3929791E0,5.8289608E1,1.1337662E0,1.1055887E3,3.8544758E1,3.2956767E0,1.3800447E2,3.1366325E1,3.9883668E0,8.177447E1,2.8326688E0,2.3867521E1,2.9030526E0,4.7554306E1,7.586304E1,1.0028738E2,7.238073E0,4.7855268E0,8.098957E0,1.9902923E0,3.073697E0,1.0804929E3,2.5095743E1,1.415437E1,2.4390387E1,2.1863456E0,1.1093311E0,9.585784E1,4.2146626E1,2.0969517E0,1.8914151E0,1.323416E0,1.5092528E0,2.1566328E1,2.3011944E0,1.7512504E0,1.1518022E0,4.2639114E1,4.915192E0,1.6136204E0,7.424941E1,2.9193454E0,4.3187275E0,1.7531021E0,3.0324247E0,1.1390039E0,6.9599533E0,7.308382E0,1.0731846E3,2.2084694E1,3.0110497E0,6.5169916E0,7.637378E0,1.3790709E0,2.3011314E1,1.3197387E0,9.45381E1,7.735562E0,3.4411064E1,2.0418219E1,1.1481096E0,1.1332624E0,1.167932E0,3.9344975E1,3.2941399E0,2.400885E0,2.5143073E0,4.378579E0,6.9870834E1,3.6583838E0,3.6499982E0,1.2595223E1,9.48947E0,1.84621E0,1.1648397E0,5.4172688E0,1.0997233E0,4.352091E1,5.1017197E1,6.3514986E0,1.3840632E0,7.8347764E0,2.6576288E1,2.1830928E0,1.111047E0,1.3445542E0,1.169753E0,1.5696732E0,2.8089058E0,2.5160778E0,1.1423059E0,5.1650105E0,7.430213E0,3.595987E1,7.561037E0,4.6740383E1,4.2768145E0,1.4006982E0,4.9508004E0,3.8015113E0,4.033265E0,1.4922774E1,1.1653514E1,2.1776252E0,2.9873855E0,6.2624407E0,1.167772E0,3.0969358E1,4.990512E0,5.512013E0,2.0490239E0,2.2390295E1,2.4350086E1,3.1117635E0,1.165051E0,1.1235002E0,2.909765E0,6.049395E0,8.87338E0,1.1431013E0,1.0510412E1,2.9434713E1,1.5346456E0,2.7035654E0,2.2869465E0,1.8012E0,2.0589094E1,2.1810177E1,2.5399113E0,1.991434E0,1.1203296E0,1.7787814E0,1.1309836E0,4.930435E0,1.1189598E0,7.748752E0,1.1246274E0,2.0557215E0,8.454691E0,1.1385944E0,2.8296118E1,1.1103711E0,1.1765753E0,1.5882243E1,4.706852E0,1.1674039E0,1.3725072E0,3.7854402E0,1.144995E0,5.0168786E0,2.7318733E0,1.6087831E0,6.8459077E0,2.46446E1,3.6515198E0,9.8332205E0,6.049023E0,1.6278068E0,1.1040665E0,1.3311684E0,2.3203514E0,1.3595722E0,4.689451E0,2.930039E0,1.7594123E0,1.8048156E0,1.1252233E0],"tree_param":{"num_deleted":"0","num_feature":"7","num_nodes":"189","size_leaf_vector":"1"}},{"base_weights":[-2.4016054E-2,1.4043288E0,-7.4682933E-1,8.298457E-1,1.9916027E0,-1.0511873E0,1.187822E0,-5.66224E-1,1.5238062E0,2.0904202E0,5.0623983E-1,2.1349156E0,-1.2324599E0,1.7296401E0,8.4451514E-1,-1.3563114E0,1.6738727E0,9.3583643E-1,1.08704105E-1,2.120628E0,-1.08485155E-1,-1.1881813E0,1.4531275E0,1.1235632E-1,1.2508368E0,-1.3335344E0,1.5865273E0,1.4337142E0,1.124078E-1,5.5756325E-1,1.4072845E0,-6.943955E-2,-6.262053E-2,1.9219519E0,-4.1540465E-1,-1.1320639E0,2.039902E0,1.7667774E0,2.1879263E0,-8.6245406E-1,6.580774E-2,-6.341302E-2,-1.7531594E-2,9.251504E-2,1.9662634E0,-2.1594932E-2,8.9536995E-2,-1.3516839E0,-3.3419296E-1,5.1581156E-1,1.05205655E-1,5.507816E-2,1.5688344E0,9.148651E-1,-1.4508995E-1,-4.3188E-2,1.5227427E0,3.1576466E-2,-3.7142064E-2,6.2338766E-3,1.0151006E-1,-4.8228376E-2,2.5998672E-2,-1.3150135E0,6.8754715E-1,2.089838E0,-2.4726301E-2,1.1346151E-1,5.2061844E-1,1.10078745E-1,1.16377E0,-1.3303369E-2,-4.9364734E-2,-5.2670956E-2,7.540647E-2,2.246271E-2,1.05505064E-1,-2.2855254E-1,-1.3601612E0,-6.665807E-1,7.843378E-2,-6.1959982E-2,9.845021E-2,4.8726328E-2,-4.9508505E-2,3.4075654E-1,1.6661605E0,1.3724374E0,-2.7041066E-1,-5.620516E-1,9.8840344E-1,1.706795E0,5.973954E-1,-6.905759E-2,-7.17369E-1,8.713891E-2,-4.470823E-2,-9.772002E-3,2.1391895E0,-5.8441406E-1,1.4209648E0,-2.3037482E-2,9.022857E-2,7.991461E-1,-5.767882E-2,-1.1165507E0,-1.373332E0,2.7017483E-1,-1.0319936E0,6.6371866E-2,-4.5745745E-2,8.836151E-2,1.0197978E0,1.5374984E0,4.6006036E-1,6.1530167E-1,-6.111648E-1,-1.1268667E0,1.0868548E0,7.0944615E-2,-1.3283879E-2,1.8207338E0,4.2424747E-1,-5.4835588E-2,8.4079385E-2,3.1318486E-2,-5.709212E-2,7.473947E-1,1.09712385E-1,-6.496859E-2,4.9435116E-2,-2.1898963E-2,1.7296896E0,6.2401664E-2,-1.801274E-2,-1.2536508E0,-6.2100506E-1,-6.896936E-2,-1.0377342E0,-6.575544E-1,8.316455E-2,3.0452823E-2,-6.523757E-2,-4.4704128E-2,8.150605E-2,1.0122662E0,1.8883884E0,-3.2949984E-2,1.0135376E0,6.0077336E-2,-2.4026021E-2,-5.488765E-2,-9.919971E-1,-6.637914E-2,-5.326903E-1,7.596597E-2,8.791445E-2,1.9751914E0,1.0756425E0,-1.7222326E-2,4.4041045E-2,6.841924E-1,-4.8910912E-2,-1.51692005E-2,7.8965746E-2,1.9135622E-2,1.0045145E-1,-1.2617022E-2,-1.2718542E0,-1.2471834E-1,-6.048299E-2,2.4788631E-2,-1.1994913E0,1.0234619E-3,-4.826704E-2,1.5781894E0,-4.0668827E-1,2.6503164E-2,1.9517267E0,9.314689E-3,6.6567294E-2,-4.460946E-1,2.9784128E-2,-6.0436178E-2,-1.2260556E-2,-9.3166053E-1,2.7535675E-2,2.4808919E-2,-1.9156653E-2,4.0242758E-2,1.03111856E-1,8.424592E-3,7.22466E-2,6.136876E-2,-1.6181914E-2,-8.206605E-1,-6.634547E-2,4.7393063E-1,-4.5505334E-2,-7.3672974E-1,-6.61693E-2,7.287629E-1,1.8911818E0,2.667175E-2,-4.1550957E-2,2.9090239E-2,1.0075034E-1,3.2191516E-3,-4.3429576E-2,-5.268095E-2,-1.4236934E-2,1.9295216E-2,-5.8915377E-2,-3.668123E-2,8.9240676E-1,-5.463735E-2,-1.5357843E-3,-1.7173126E-2,5.9301715E-2,1.0311307E-1,2.6676385E-2,1.0597212E0,8.642275E-3,-3.6635872E-2,3.6519747E-2,1.2862767E-2,7.6130934E-2],"categories":[],"categories_nodes":[],"categories_segments":[],"categories_sizes":[],"default_left":[0,0,0,0,0,0,0,0,0,0,0,0,0,0,0,0,0,0,0,0,0,0,0,0,0,0,0,0,0,0,0,0,0,0,0,0,0,0,0,0,0,0,0,0,0,0,0,0,0,0,0,0,0,0,0,0,0,0,0,0,0,0,0,0,0,0,0,0,0,0,0,0,0,0,0,0,0,0,0,0,0,0,0,0,0,0,0,0,0,0,0,0,0,0,0,0,0,0,0,0,0,0,0,0,0,0,0,0,0,0,0,0,0,0,0,0,0,0,0,0,0,0,0,0,0,0,0,0,0,0,0,0,0,0,0,0,0,0,0,0,0,0,0,0,0,0,0,0,0,0,0,0,0,0,0,0,0,0,0,0,0,0,0,0,0,0,0,0,0,0,0,0,0,0,0,0,0,0,0,0,0,0,0,0,0,0,0,0,0,0,0,0,0,0,0,0,0,0,0,0,0,0,0,0,0,0,0,0,0,0,0,0,0,0,0,0,0,0,0,0,0,0,0,0,0,0,0],"id":3,"left_children":[1,3,5,7,9,11,13,15,17,19,21,23,25,27,29,31,33,35,-1,37,39,41,43,-1,45,47,49,51,-1,53,55,-1,57,59,61,63,65,67,69,71,-1,-1,-1,73,75,-1,-1,77,79,81,-1,83,85,87,89,-1,91,-1,-1,-1,-1,-1,-1,93,95,97,-1,-1,99,-1,101,-1,-1,-1,-1,-1,-1,103,105,107,-1,-1,-1,-1,-1,109,111,113,115,117,119,121,123,-1,125,-1,-1,-1,127,129,131,-1,-1,133,-1,135,137,139,141,-1,-1,-1,143,145,147,149,151,153,155,-1,-1,157,159,161,-1,-1,-1,163,-1,-1,-1,-1,165,-1,-1,167,169,-1,171,173,-1,-1,-1,-1,-1,175,177,-1,179,-1,-1,181,183,-1,185,187,-1,189,191,-1,-1,193,-1,-1,-1,-1,-1,-1,195,197,-1,-1,199,-1,-1,201,203,-1,205,-1,-1,207,-1,-1,-1,209,-1,-1,-1,-1,-1,-1,-1,-1,-1,211,-1,213,-1,215,-1,217,219,-1,-1,-1,-1,-1,-1,-1,-1,-1,-1,-1,221,-1,223,-1,-1,-1,-1,225,-1,-1,-1,-1,-1],"loss_changes":[2.1123433E3,2.3028992E2,8.011685E2,3.3921347E2,4.8735962E1,6.8088806E2,3.297641E1,2.0879466E2,8.726227E1,2.1337158E1,3.779533E1,3.4969788E0,3.1889172E2,7.6486664E0,1.78321E1,3.5609436E0,1.6800034E1,2.8634442E2,0E0,3.6000977E0,6.7823906E0,1.3273525E-1,1.0201023E1,0E0,9.328815E0,1.9025146E1,2.0494469E1,8.830742E0,0E0,1.9717321E1,1.1351387E1,0E0,1.9675506E0,5.1503906E0,2.6071167E0,1.5533546E1,1.1343262E1,3.3439056E1,1.0611572E0,3.8262606E-2,0E0,0E0,0E0,9.897601E0,1.3975868E0,0E0,0E0,9.727783E0,1.4001001E1,3.81812E1,0E0,6.0674233E0,4.638695E0,2.8491337E1,1.3391453E1,0E0,5.245331E0,0E0,0E0,0E0,0E0,0E0,0E0,6.011276E-1,9.355319E0,9.449585E0,0E0,0E0,1.7928593E1,0E0,6.5885262E0,0E0,0E0,0E0,0E0,0E0,0E0,9.573281E0,1.8236084E0,6.4878426E0,0E0,0E0,0E0,0E0,0E0,6.734935E0,8.17688E-1,4.950966E0,4.9866705E0,2.0310032E1,4.5157614E0,3.6325455E0,5.4956656E0,0E0,4.1908836E0,0E0,0E0,0E0,4.373169E0,1.0759628E1,6.3595867E0,0E0,0E0,3.0006914E0,0E0,3.2307816E0,5.769043E-1,8.69666E0,6.72832E0,0E0,0E0,0E0,1.0553797E1,3.8734741E0,5.1168804E0,3.624149E0,2.3889875E0,1.1717606E0,3.7607784E0,0E0,0E0,1.0265121E0,1.624157E0,4.58594E0,0E0,0E0,0E0,4.4151998E0,0E0,0E0,0E0,0E0,2.4568653E0,0E0,0E0,5.0370026E-1,4.16413E0,0E0,5.9408855E0,9.062215E-1,0E0,0E0,0E0,0E0,0E0,1.2467847E1,4.8503113E-1,0E0,1.1190844E0,0E0,0E0,1.7280895E0,8.0224323E-1,0E0,2.9545717E0,8.3350384E-1,0E0,5.287857E-1,2.0671034E0,0E0,0E0,2.4645715E0,0E0,0E0,0E0,0E0,0E0,0E0,8.705139E-3,4.7234373E0,0E0,0E0,1.5956497E-1,0E0,0E0,1.475277E0,2.435523E0,0E0,2.582512E-1,0E0,0E0,9.5312285E-1,0E0,0E0,0E0,5.5008173E-2,0E0,0E0,0E0,0E0,0E0,0E0,0E0,0E0,0E0,3.659422E0,0E0,3.6047373E0,0E0,1.682601E0,0E0,2.6219754E0,5.7577133E-1,0E0,0E0,0E0,0E0,0E0,0E0,0E0,0E0,0E0,0E0,0E0,3.9310265E-1,0E0,2.1946666E0,0E0,0E0,0E0,0E0,9.784875E-1,0E0,0E0,0E0,0E0,0E0],"parents":[2147483647,0,0,1,1,2,2,3,3,4,4,5,5,6,6,7,7,8,8,9,9,10,10,11,11,12,12,13,13,14,14,15,15,16,16,17,17,19,19,20,20,21,21,22,22,24,24,25,25,26,26,27,27,29,29,30,30,32,32,33,33,34,34,35,35,36,36,37,37,38,38,39,39,43,43,44,44,47,47,48,48,49,49,51,51,52,52,53,53,54,54,56,56,63,63,64,64,65,65,68,68,70,70,77,77,78,78,79,79,85,85,86,86,87,87,88,88,89,89,90,90,91,91,92,92,94,94,98,98,99,99,100,100,103,103,105,105,106,106,107,107,108,108,112,112,113,113,114,114,115,115,116,116,117,117,118,118,121,121,122,122,123,123,127,127,132,132,135,135,136,136,138,138,139,139,145,145,146,146,148,148,151,151,152,152,154,154,155,155,157,157,158,158,161,161,168,168,169,169,172,172,175,175,176,176,178,178,181,181,185,185,195,195,197,197,199,199,201,201,202,202,214,214,216,216,221,221],"right_children":[2,4,6,8,10,12,14,16,18,20,22,24,26,28,30,32,34,36,-1,38,40,42,44,-1,46,48,50,52,-1,54,56,-1,58,60,62,64,66,68,70,72,-1,-1,-1,74,76,-1,-1,78,80,82,-1,84,86,88,90,-1,92,-1,-1,-1,-1,-1,-1,94,96,98,-1,-1,100,-1,102,-1,-1,-1,-1,-1,-1,104,106,108,-1,-1,-1,-1,-1,110,112,114,116,118,120,122,124,-1,126,-1,-1,-1,128,130,132,-1,-1,134,-1,136,138,140,142,-1,-1,-1,144,146,148,150,152,154,156,-1,-1,158,160,162,-1,-1,-1,164,-1,-1,-1,-1,166,-1,-1,168,170,-1,172,174,-1,-1,-1,-1,-1,176,178,-1,180,-1,-1,182,184,-1,186,188,-1,190,192,-1,-1,194,-1,-1,-1,-1,-1,-1,196,198,-1,-1,200,-1,-1,202,204,-1,206,-1,-1,208,-1,-1,-1,210,-1,-1,-1,-1,-1,-1,-1,-1,-1,212,-1,214,-1,216,-1,218,220,-1,-1,-1,-1,-1,-1,-1,-1,-1,-1,-1,222,-1,224,-1,-1,-1,-1,226,-1,-1,-1,-1,-1],"split_conditions":[-8.577659E-1,7.998526E-1,1.5127138E0,1.4170495E0,1.5464729E0,-2.5917447E0,-4.617266E-1,1.4787021E0,1.1062187E0,-8.80078E-1,1.5963478E0,-2.7202656E0,1.6720742E0,1.2352079E0,1.7485207E0,7.0536065E-1,2.4751537E-1,2.2407658E0,1.08704105E-1,1.0039318E0,1.4956151E0,1.273335E0,5.8206505E-1,1.1235632E-1,6.361255E-2,1.4625766E0,1.9173611E0,1.5584074E0,1.124078E-1,2.4668173E-1,-1.4023538E0,-6.943955E-2,-4.7055063E-1,-1.129269E0,-9.2971706E-1,6.66673E-1,1.0746667E0,3.9594024E-1,1.479072E0,9.556627E-1,6.580774E-2,-6.341302E-2,-1.7531594E-2,2.32447E0,1.5474123E0,-2.1594932E-2,8.9536995E-2,-2.3761914E0,1.864307E0,1.0376748E0,1.05205655E-1,-4.755537E-1,2.1376474E-2,4.1439805E-2,1.7806368E0,-4.3188E-2,1.917473E0,3.1576466E-2,-3.7142064E-2,6.2338766E-3,1.0151006E-1,-4.8228376E-2,2.5998672E-2,3.5485753E-1,7.115238E-2,-1.704736E0,-2.4726301E-2,1.1346151E-1,9.2770004E-1,1.10078745E-1,1.7918428E0,-1.3303369E-2,-4.9364734E-2,-5.2670956E-2,7.540647E-2,2.246271E-2,1.05505064E-1,-5.0242513E-1,-7.5178355E-1,-8.79959E-1,7.843378E-2,-6.1959982E-2,9.845021E-2,4.8726328E-2,-4.9508505E-2,-8.523974E-1,1.1420676E0,1.6818128E0,-4.282585E-1,1.6975234E0,3.5485753E-1,1.1056268E0,4.2264307E-1,-6.905759E-2,-1.3854925E-1,8.713891E-2,-4.470823E-2,-9.772002E-3,2.32447E0,2.426274E0,1.1549546E0,-2.3037482E-2,9.022857E-2,6.606184E-1,-5.767882E-2,1.0039318E0,1.4015379E0,-8.9461195E-1,-7.4620557E-1,6.6371866E-2,-4.5745745E-2,8.836151E-2,5.1292807E-1,4.0066382E-1,-2.3302786E-1,7.474757E-1,2.2200976E-1,1.628172E0,5.757848E-1,7.0944615E-2,-1.3283879E-2,6.1430043E-1,8.474678E-1,-6.407134E-1,8.4079385E-2,3.1318486E-2,-5.709212E-2,-9.5946753E-1,1.09712385E-1,-6.496859E-2,4.9435116E-2,-2.1898963E-2,4.7278818E-1,6.2401664E-2,-1.801274E-2,-1.8750185E-2,1.2252976E0,-6.896936E-2,-1.2264842E0,1.4787021E0,8.316455E-2,3.0452823E-2,-6.523757E-2,-4.4704128E-2,8.150605E-2,-8.125581E-1,-6.6077673E-1,-3.2949984E-2,2.708655E-1,6.0077336E-2,-2.4026021E-2,1.6181979E-1,1.6689557E0,-6.637914E-2,9.6989304E-1,-6.4110947E-1,8.791445E-2,-3.390102E-1,1.0039318E0,-1.7222326E-2,4.4041045E-2,8.937319E-1,-4.8910912E-2,-1.51692005E-2,7.8965746E-2,1.9135622E-2,1.0045145E-1,-1.2617022E-2,-1.3189274E0,9.5432127E-1,-6.048299E-2,2.4788631E-2,-2.5760108E-1,1.0234619E-3,-4.826704E-2,-1.7956823E-1,-1.6051362E-1,2.6503164E-2,1.5404166E0,9.314689E-3,6.6567294E-2,-2.8880805E-1,2.9784128E-2,-6.0436178E-2,-1.2260556E-2,2.0843525E-1,2.7535675E-2,2.4808919E-2,-1.9156653E-2,4.0242758E-2,1.03111856E-1,8.424592E-3,7.22466E-2,6.136876E-2,-1.6181914E-2,5.229597E-1,-6.634547E-2,2.8219977E-1,-4.5505334E-2,3.0246192E-1,-6.61693E-2,-1.0523815E0,1.8532352E-1,2.667175E-2,-4.1550957E-2,2.9090239E-2,1.0075034E-1,3.2191516E-3,-4.3429576E-2,-5.268095E-2,-1.4236934E-2,1.9295216E-2,-5.8915377E-2,-3.668123E-2,8.9442897E-1,-5.463735E-2,-8.79959E-1,-1.7173126E-2,5.9301715E-2,1.0311307E-1,2.6676385E-2,-8.013707E-1,8.642275E-3,-3.6635872E-2,3.6519747E-2,1.2862767E-2,7.6130934E-2],"split_indices":[3,1,5,4,2,4,3,5,5,3,4,4,4,4,5,1,1,4,0,1,5,5,5,0,5,5,4,5,0,3,1,0,5,3,3,1,2,2,2,1,0,0,0,4,1,0,0,4,3,5,0,2,4,4,3,0,5,0,0,0,0,0,0,1,2,3,0,0,5,0,4,0,0,0,0,0,0,1,3,2,0,0,0,0,0,1,2,5,3,5,1,2,4,0,2,0,0,0,4,4,4,0,0,5,0,1,5,1,3,0,0,0,4,2,3,1,4,5,3,0,0,1,1,4,0,0,0,3,0,0,0,0,2,0,0,4,2,0,2,5,0,0,0,0,0,2,4,0,1,0,0,4,5,0,2,1,0,3,1,0,0,3,0,0,0,0,0,0,5,4,0,0,1,0,0,3,3,0,5,0,0,3,0,0,0,1,0,0,0,0,0,0,0,0,0,4,0,4,0,3,0,1,3,0,0,0,0,0,0,0,0,0,0,0,4,0,2,0,0,0,0,3,0,0,0,0,0],"split_type":[0,0,0,0,0,0,0,0,0,0,0,0,0,0,0,0,0,0,0,0,0,0,0,0,0,0,0,0,0,0,0,0,0,0,0,0,0,0,0,0,0,0,0,0,0,0,0,0,0,0,0,0,0,0,0,0,0,0,0,0,0,0,0,0,0,0,0,0,0,0,0,0,0,0,0,0,0,0,0,0,0,0,0,0,0,0,0,0,0,0,0,0,0,0,0,0,0,0,0,0,0,0,0,0,0,0,0,0,0,0,0,0,0,0,0,0,0,0,0,0,0,0,0,0,0,0,0,0,0,0,0,0,0,0,0,0,0,0,0,0,0,0,0,0,0,0,0,0,0,0,0,0,0,0,0,0,0,0,0,0,0,0,0,0,0,0,0,0,0,0,0,0,0,0,0,0,0,0,0,0,0,0,0,0,0,0,0,0,0,0,0,0,0,0,0,0,0,0,0,0,0,0,0,0,0,0,0,0,0,0,0,0,0,0,0,0,0,0,0,0,0,0,0,0,0,0,0],"sum_hessian":[2.0439825E3,6.8648425E2,1.3574983E3,3.4824097E2,3.382433E2,1.1733624E3,1.8413591E2,1.1568886E2,2.3255212E2,3.167625E2,2.1480774E1,6.2584286E1,1.1107781E3,6.985318E1,1.1428272E2,8.581591E1,2.9872948E1,1.2340778E2,1.0914434E2,3.12505E2,4.2575064E0,7.6093287E0,1.3871445E1,5.4167374E1,8.416911E0,1.0728386E3,3.793954E1,4.686917E1,2.2984009E1,7.700778E1,3.727494E1,8.3642456E1,2.173451E0,2.677392E1,3.099027E0,4.29457E1,8.046208E1,5.4292194E1,2.582128E2,3.0421245E0,1.2153819E0,6.475909E0,1.1334194E0,4.121998E0,9.749446E0,2.093152E0,6.3237596E0,1.0533555E3,1.948309E1,1.3014131E1,2.492541E1,4.3092628E0,4.2559906E1,5.0848904E1,2.6158878E1,1.4897937E0,3.578515E1,1.11114E0,1.062311E0,1.6432159E0,2.5130705E1,1.9329696E0,1.1660573E0,3.927425E1,3.671453E0,7.90794E1,1.3826866E0,3.810659E1,1.6185602E1,2.5368246E2,4.5303555E0,1.0685793E0,1.9735451E0,2.419378E0,1.7026198E0,1.201454E0,8.547993E0,8.100555E0,1.0452549E3,1.7138994E1,2.3440948E0,5.9616013E0,7.05253E0,2.328589E0,1.9806737E0,3.4557538E0,3.9104153E1,3.657235E1,1.4276556E1,1.9492573E1,6.666306E0,2.9143911E1,6.6412373E0,3.418066E1,5.0935884E0,2.141159E0,1.5302941E0,1.6090751E0,7.747032E1,7.424323E0,8.761279E0,1.3610036E0,3.1693518E0,3.9017754E0,4.1987796E0,5.801288E1,9.8724207E2,4.8826623E0,1.2256332E1,1.9031469E0,1.5526069E0,3.231677E1,6.787387E0,3.0389359E1,6.18299E0,3.7426612E0,1.05338955E1,1.4755003E1,4.73757E0,4.8649073E0,1.8013985E0,2.6380686E1,2.7632263E0,4.739475E0,1.9017624E0,1.1085752E0,3.9850132E0,3.5026572E0,7.396767E1,5.224074E0,2.2002492E0,1.1881746E0,7.5731044E0,2.757646E0,1.1441292E0,4.424265E1,1.3770228E1,9.666896E2,2.055247E1,3.2478154E0,1.6348468E0,1.5710616E0,1.0685271E1,1.528696E0,5.258691E0,1.372694E1,1.6662418E1,1.9829882E0,4.2000017E0,2.3753908E0,1.3672706E0,4.745836E0,5.7880597E0,1.0106612E1,4.6483912E0,2.3350844E0,2.4024851E0,2.0483511E1,5.8971744E0,1.1211777E0,1.6420486E0,2.7764132E0,1.9630617E0,1.8284748E0,1.6741824E0,1.7078583E0,5.865246E0,1.0553142E0,4.3187336E1,8.12881E0,5.641418E0,1.764028E0,1.878844E1,1.3054752E0,1.9423403E0,9.732926E0,3.9940143E0,1.1597481E0,1.550267E1,1.6059511E0,2.594051E0,3.1599607E0,1.585875E0,4.006699E0,1.7813606E0,3.4996753E0,1.148716E0,1.177007E0,1.1580776E0,2.127358E0,1.8356152E1,2.1274378E0,3.7697368E0,1.6625324E0,1.1138809E0,6.426482E0,3.6760853E1,4.837825E0,3.290985E0,5.4348917E0,1.335355E1,3.51688E0,6.216046E0,1.1621344E0,2.8318796E0,1.1345879E0,1.4368083E1,1.814827E0,1.3451337E0,2.4156153E0,1.0840598E0,1.4513092E0,4.975173E0,1.0512501E0,3.7865748E0,3.3340445E0,2.100847E0,1.1258457E0,2.3910344E0,5.0595036E0,1.1565423E0,2.6886656E0,1.0979091E0,1.0504235E0,1.0504235E0,1.5526996E0,1.1359661E0],"tree_param":{"num_deleted":"0","num_feature":"7","num_nodes":"227","size_leaf_vector":"1"}},{"base_weights":[-2.923624E-2,1.3164903E0,-7.225819E-1,7.044878E-1,1.5482832E0,-1.030128E0,1.1991882E0,-8.102525E-2,1.8311597E0,1.6082163E0,3.7832928E-1,1.9980403E0,-1.1986771E0,1.7143263E0,8.7486744E-1,-6.85317E-2,1.6925267E0,-3.877741E-2,1.8781431E0,1.6684815E0,6.0116863E-1,-1.5860148E-1,1.7200079E0,2.049489E0,-1.8395487E-2,-1.309538E0,1.5348938E0,1.398388E0,1.0290801E-1,5.935399E-1,1.3096226E0,1.8942964E0,-7.4124855E-1,1.4650828E0,1.0430665E-1,1.7077613E0,5.7255995E-1,-6.435702E-2,1.3721262E0,-5.133626E-1,7.937977E-2,3.0637939E-2,9.430143E-2,1.3742329E0,1.06249146E-1,-1.3258328E0,-1.4998992E-1,4.8448268E-1,1.0151068E-1,1.5536673E0,4.4286478E-1,8.306966E-1,-4.3668625E-1,1.395364E0,-1.8578541E-1,3.0386886E-1,2.0686E0,5.714524E-3,-5.359552E-2,-4.5560145E-1,2.0240302E0,1.590839E0,1.9195733E0,-5.0521143E-2,8.500229E-1,-3.149954E-2,1.5971386E0,3.980419E-1,-1.0218263E0,7.914634E-2,8.701308E-4,-2.9451808E-1,-1.3325379E0,6.6282004E-2,-3.6626443E-1,-1.1030183E0,9.3585834E-2,1.6479995E0,1.6205795E-1,6.9006264E-2,-6.197221E-2,1.2766211E0,1.2079899E-1,-6.670803E-1,3.9312765E-2,1.5276664E0,2.0280407E-1,-1.55404005E-2,9.3717495E-4,6.4909E-2,-5.003543E-2,9.26067E-1,1.0622095E-1,-5.6633618E-2,7.3805857E-1,2.4889776E-2,1.0417391E-1,7.6906985E-1,1.6293327E0,1.7796246E0,1.06764816E-1,1.0823905E0,-2.054618E-2,1.6909894E0,3.9907913E-3,6.745589E-2,-4.640316E-1,-3.443113E-1,-1.144043E0,3.3186972E-1,-5.2019723E-2,-1.3423795E0,-8.554977E-1,1.3144767E-1,-5.9694417E-2,-6.014594E-2,-1.2073159E-2,3.5594252E-3,1.705895E0,-3.8244404E-2,4.9023036E-2,-5.585252E-2,6.0643673E-2,7.441014E-1,1.6192245E0,-4.261555E-1,1.3683203E0,-1.9284026E-1,-5.477179E-2,1.0912806E0,8.997103E-2,-4.3980795E-1,6.546968E-2,2.6899423E-3,6.533648E-2,6.046734E-3,5.0210852E-2,-2.0846324E-2,9.1739035E-1,4.4529524E-1,1.6460404E0,1.5197664E0,1.030126E-1,2.8793162E-1,6.7680724E-2,6.802932E-1,9.29856E-2,2.295562E-2,-4.832245E-2,8.86052E-3,-3.553498E-2,-1.2972692E-2,-6.1551522E-2,-4.005291E-2,8.513927E-1,-1.1229571E0,-6.754377E-2,3.765925E-1,-1.0924902E0,-5.5542535E-1,6.6381526E-1,2.6483094E-2,1.7344878E0,1.594032E0,-4.5426976E-2,1.8043805E0,9.1950536E-2,-8.663924E-1,5.809732E-1,3.9891656E-3,7.962736E-2,6.80828E-1,-4.5748476E-2,-4.1061915E-2,1.4751114E0,1.587982E-2,-4.704487E-2,1.2503967E0,2.4196729E-1,7.775377E-2,-4.738429E-2,1.0776318E-2,1.6563275E0,1.627329E0,1.993165E-1,4.4562016E-2,-3.7839137E-2,-4.003219E-2,7.541501E-2,7.0246704E-2,-1.5461698E-2,-5.45612E-1,-1.2257097E0,6.1065134E-2,-1.8688325E-2,-1.2745857E0,4.0715873E-2,7.893566E-3,-4.028099E-2,8.270677E-2,-3.281928E-1,8.382429E-1,1.8161569E0,7.1158963E-1,9.613312E-2,2.0272694E0,5.9088653E-1,2.5698036E-2,-1.8775476E-2,-5.876589E-2,-1.8315403E-2,5.6385536E-2,-2.7433852E-2,4.8059978E-2,9.26039E-3,1.6266046E0,4.5259678E-1,4.066468E-3,7.702889E-2,1.0036939E0,-4.6902325E-2,6.333199E-1,1.6736608E0,4.3692715E-3,1.6615347E0,-4.6750134E-1,4.315538E-2,-5.6129444E-2,1.6735983E-1,-6.590492E-2,-6.943305E-1,-6.598733E-2,-1.3901271E-2,5.2422895E-3,-3.7576593E-2,8.197501E-2,-3.8976442E-2,3.081049E-2,9.312656E-2,6.096933E-2,-3.51526E-4,2.3274906E-2,1.0623305E-1,5.2961316E-2,-5.44464E-4,5.4084476E-2,-4.686625E-2,8.698784E-2,3.2706816E-2,-3.709623E-2,6.8344034E-2,6.554678E-2,1.3337758E-2,-4.623241E-2,8.267482E-2,1.6811774E0,8.964029E-4,9.2002547E-1,1.7476572E0,5.9714634E-3,-4.1395E-2,-4.3596823E-2,5.181396E-2,7.4256875E-2,-5.5650204E-2,1.7599715E0,1.5175424E0,6.345171E-2,-9.881748E-3,1.3945028E-2,1.791298E0,2.2599956E-2,-1.734885E-2,6.2441593E-1,1.7753277E0,-6.655237E-1,1.6312809E0,1.9087232E0,1.1785985E0,5.5472076E-2,-1.5211766E-2,2.7541285E-2,1.7839234E0,4.3994114E-3,-4.4913135E-2,8.493999E-2,1.1309565E0,3.3390883E-2,9.71606E-2,2.0102742E-1,1.5260795E0,7.09547E-2,9.151778E-2,-2.3414306E-3,6.333596E-2,-4.1208994E-2,5.021738E-2,8.3929546E-2,2.2464616E-2],"categories":[],"categories_nodes":[],"categories_segments":[],"categories_sizes":[],"default_left":[0,0,0,0,0,0,0,0,0,0,0,0,0,0,0,0,0,0,0,0,0,0,0,0,0,0,0,0,0,0,0,0,0,0,0,0,0,0,0,0,0,0,0,0,0,0,0,0,0,0,0,0,0,0,0,0,0,0,0,0,0,0,0,0,0,0,0,0,0,0,0,0,0,0,0,0,0,0,0,0,0,0,0,0,0,0,0,0,0,0,0,0,0,0,0,0,0,0,0,0,0,0,0,0,0,0,0,0,0,0,0,0,0,0,0,0,0,0,0,0,0,0,0,0,0,0,0,0,0,0,0,0,0,0,0,0,0,0,0,0,0,0,0,0,0,0,0,0,0,0,0,0,0,0,0,0,0,0,0,0,0,0,0,0,0,0,0,0,0,0,0,0,0,0,0,0,0,0,0,0,0,0,0,0,0,0,0,0,0,0,0,0,0,0,0,0,0,0,0,0,0,0,0,0,0,0,0,0,0,0,0,0,0,0,0,0,0,0,0,0,0,0,0,0,0,0,0,0,0,0,0,0,0,0,0,0,0,0,0,0,0,0,0,0,0,0,0,0,0,0,0,0,0,0,0,0,0,0,0,0,0,0,0,0,0,0,0,0,0,0,0,0,0,0,0,0,0,0,0,0,0,0,0,0,0,0,0,0,0,0,0,0,0,0,0,0,0,0,0],"id":4,"left_children":[1,3,5,7,9,11,13,15,17,19,21,23,25,27,29,-1,31,-1,33,35,37,39,41,43,-1,45,47,49,-1,51,53,55,57,59,-1,61,63,-1,65,67,-1,-1,-1,69,-1,71,73,75,-1,77,79,81,83,85,87,89,91,-1,-1,93,95,97,99,-1,101,-1,103,105,107,-1,-1,109,111,-1,113,115,-1,117,119,-1,121,123,125,127,-1,129,131,-1,-1,-1,-1,133,-1,-1,135,-1,-1,137,139,141,-1,143,-1,145,-1,-1,147,149,151,153,-1,155,157,159,-1,-1,-1,-1,161,-1,-1,-1,-1,163,165,167,169,171,-1,173,-1,175,-1,-1,-1,-1,-1,-1,177,179,181,183,-1,185,-1,187,-1,-1,-1,-1,-1,-1,-1,-1,189,191,-1,193,195,197,199,-1,201,203,-1,205,207,209,211,-1,-1,213,-1,-1,215,-1,-1,217,219,-1,-1,-1,221,223,225,-1,-1,-1,-1,-1,-1,227,229,-1,-1,231,-1,-1,-1,-1,233,235,237,239,-1,241,243,-1,-1,-1,245,-1,-1,-1,-1,247,249,-1,-1,251,-1,253,255,-1,257,259,-1,-1,261,-1,263,-1,-1,-1,-1,-1,-1,-1,-1,-1,-1,-1,-1,-1,-1,-1,-1,-1,-1,-1,-1,-1,-1,-1,-1,265,-1,267,269,-1,-1,-1,-1,271,-1,273,275,-1,-1,-1,277,-1,-1,279,281,283,285,287,289,-1,-1,-1,291,-1,-1,-1,293,-1,-1,295,297,-1,-1,-1,-1,-1,-1,-1,-1],"loss_changes":[1.8803738E3,9.611975E1,7.873113E2,1.6837172E2,3.4183716E1,5.8784875E2,2.9231567E1,2.6066632E2,1.1024811E1,2.7624268E1,1.8633402E1,8.16156E0,3.314839E2,4.728546E0,1.3278381E1,0E0,2.4975922E1,0E0,3.5618896E0,1.8156982E1,4.2816223E1,1.2658359E1,1.9892883E-1,1.2373352E-1,0E0,1.9553223E1,2.1302444E1,5.189209E0,0E0,1.7856457E1,5.941826E0,1.1737534E1,1.365437E0,3.222511E1,0E0,7.561157E0,8.275049E0,0E0,1.02444725E1,8.120546E0,0E0,0E0,0E0,2.4741745E0,0E0,6.7349854E0,5.4687276E0,3.518462E1,0E0,4.1536484E0,3.3673882E0,1.8379353E1,4.4841843E0,6.3222275E0,8.9846775E-2,8.534836E0,5.8555603E-1,0E0,0E0,6.807664E0,1.0287399E0,7.6677246E0,6.5631104E-1,0E0,4.813406E0,0E0,2.530468E0,6.1033897E0,5.140362E-1,0E0,0E0,4.055743E0,3.6582031E0,0E0,6.089356E0,3.6733818E-1,0E0,2.747673E0,3.2130816E0,0E0,8.705501E0,5.336521E0,1.6749212E1,2.300951E0,0E0,2.505165E0,4.3807564E0,0E0,0E0,0E0,0E0,1.1374512E0,0E0,0E0,4.1726148E-1,0E0,0E0,2.9354057E0,4.5786133E0,3.8353882E0,0E0,2.3823433E0,0E0,1.7323608E0,0E0,0E0,2.4140892E0,7.1948016E-1,3.622713E-1,3.6689618E0,0E0,3.4973145E-1,7.259327E0,3.9867382E0,0E0,0E0,0E0,0E0,9.941864E-2,0E0,0E0,0E0,0E0,2.3763584E1,5.76334E0,8.144205E0,2.0279865E0,5.0913734E0,0E0,1.36925125E1,0E0,1.8676064E0,0E0,0E0,0E0,0E0,0E0,0E0,2.6691122E0,9.368364E0,3.5337524E0,7.261986E0,0E0,3.5387487E0,0E0,6.224617E0,0E0,0E0,0E0,0E0,0E0,0E0,0E0,0E0,2.9812007E0,1.8972092E0,0E0,3.3258173E0,7.9563313E0,9.953495E-1,6.466404E0,0E0,6.086273E-1,1.7796135E0,0E0,3.845543E0,8.480996E-1,3.2253456E0,4.2258954E0,0E0,0E0,3.4701455E-1,0E0,0E0,1.5127048E0,0E0,0E0,2.7953062E0,5.977649E0,0E0,0E0,0E0,3.592041E0,2.4490662E0,2.688718E0,0E0,0E0,0E0,0E0,0E0,0E0,3.6175585E0,8.4807205E-1,0E0,0E0,4.691906E-1,0E0,0E0,0E0,0E0,7.8397685E-1,6.837123E0,2.8939056E-1,1.662715E0,0E0,1.3445206E0,1.2247903E0,0E0,0E0,0E0,5.385923E0,0E0,0E0,0E0,0E0,2.109108E-1,4.5732794E0,0E0,0E0,5.306194E-1,0E0,1.1033277E1,3.1729736E0,0E0,1.4653778E0,7.8088754E-1,0E0,0E0,5.0571265E0,0E0,2.47445E0,0E0,0E0,0E0,0E0,0E0,0E0,0E0,0E0,0E0,0E0,0E0,0E0,0E0,0E0,0E0,0E0,0E0,0E0,0E0,0E0,0E0,0E0,0E0,0E0,6.324463E-1,0E0,3.0279083E0,2.1928558E0,0E0,0E0,0E0,0E0,7.2306484E-1,0E0,1.7978516E0,2.3563873E1,0E0,0E0,0E0,6.720276E-1,0E0,0E0,2.0339649E0,7.424927E-1,9.897876E-1,9.952698E-1,9.163666E-2,2.7997618E0,0E0,0E0,0E0,1.5209961E-1,0E0,0E0,0E0,2.179161E0,0E0,0E0,3.7514138E0,3.2892418E-1,0E0,0E0,0E0,0E0,0E0,0E0,0E0,0E0],"parents":[2147483647,0,0,1,1,2,2,3,3,4,4,5,5,6,6,7,7,8,8,9,9,10,10,11,11,12,12,13,13,14,14,16,16,18,18,19,19,20,20,21,21,22,22,23,23,25,25,26,26,27,27,29,29,30,30,31,31,32,32,33,33,35,35,36,36,38,38,39,39,43,43,45,45,46,46,47,47,49,49,50,50,51,51,52,52,53,53,54,54,55,55,56,56,59,59,60,60,61,61,62,62,64,64,66,66,67,67,68,68,71,71,72,72,74,74,75,75,77,77,78,78,80,80,81,81,82,82,83,83,85,85,86,86,91,91,94,94,97,97,98,98,99,99,101,101,103,103,106,106,107,107,108,108,109,109,111,111,112,112,113,113,118,118,123,123,124,124,125,125,126,126,127,127,129,129,131,131,138,138,139,139,140,140,141,141,143,143,145,145,154,154,155,155,157,157,158,158,159,159,160,160,162,162,163,163,165,165,166,166,167,167,168,168,171,171,174,174,177,177,178,178,182,182,183,183,184,184,191,191,192,192,195,195,200,200,201,201,202,202,203,203,205,205,206,206,210,210,215,215,216,216,219,219,221,221,222,222,224,224,225,225,228,228,230,230,255,255,257,257,258,258,263,263,265,265,266,266,270,270,273,273,274,274,275,275,276,276,277,277,278,278,282,282,286,286,289,289,290,290],"right_children":[2,4,6,8,10,12,14,16,18,20,22,24,26,28,30,-1,32,-1,34,36,38,40,42,44,-1,46,48,50,-1,52,54,56,58,60,-1,62,64,-1,66,68,-1,-1,-1,70,-1,72,74,76,-1,78,80,82,84,86,88,90,92,-1,-1,94,96,98,100,-1,102,-1,104,106,108,-1,-1,110,112,-1,114,116,-1,118,120,-1,122,124,126,128,-1,130,132,-1,-1,-1,-1,134,-1,-1,136,-1,-1,138,140,142,-1,144,-1,146,-1,-1,148,150,152,154,-1,156,158,160,-1,-1,-1,-1,162,-1,-1,-1,-1,164,166,168,170,172,-1,174,-1,176,-1,-1,-1,-1,-1,-1,178,180,182,184,-1,186,-1,188,-1,-1,-1,-1,-1,-1,-1,-1,190,192,-1,194,196,198,200,-1,202,204,-1,206,208,210,212,-1,-1,214,-1,-1,216,-1,-1,218,220,-1,-1,-1,222,224,226,-1,-1,-1,-1,-1,-1,228,230,-1,-1,232,-1,-1,-1,-1,234,236,238,240,-1,242,244,-1,-1,-1,246,-1,-1,-1,-1,248,250,-1,-1,252,-1,254,256,-1,258,260,-1,-1,262,-1,264,-1,-1,-1,-1,-1,-1,-1,-1,-1,-1,-1,-1,-1,-1,-1,-1,-1,-1,-1,-1,-1,-1,-1,-1,266,-1,268,270,-1,-1,-1,-1,272,-1,274,276,-1,-1,-1,278,-1,-1,280,282,284,286,288,290,-1,-1,-1,292,-1,-1,-1,294,-1,-1,296,298,-1,-1,-1,-1,-1,-1,-1,-1],"split_conditions":[-8.577659E-1,-1.6888803E-1,1.527022E0,2.0379171E0,-8.968121E-1,-2.5917447E0,-4.617266E-1,1.278378E0,-1.704736E0,1.479072E0,1.4304419E0,2E0,1.6465062E0,1.0646696E0,1.7485207E0,-6.85317E-2,1E0,-3.877741E-2,2.32447E0,2E0,1.5060629E0,1.9173611E0,1.4956151E0,5.6421933E0,-1.8395487E-2,1.4956151E0,1.9173611E0,8.9442897E-1,1.0290801E-1,4.1439805E-2,2E0,1.0496861E0,8.640363E-1,6.606184E-1,1.0430665E-1,1.7679352E0,8.1471306E-1,-6.435702E-2,-7.219215E-1,-8.9123404E-1,7.937977E-2,3.0637939E-2,9.430143E-2,1E0,1.06249146E-1,-2.3761914E0,1.507743E0,1.0690961E0,1.0151068E-1,1.0072658E0,-1.2264842E0,2.4668173E-1,7.4365634E-1,1.9803157E0,3.0246192E-1,6.433397E-1,1.3990204E0,5.714524E-3,-5.359552E-2,-1.1614157E0,1.0376748E0,-1.2954731E0,1.1336695E0,-5.0521143E-2,8.1772524E-1,-3.149954E-2,2.08568E0,2.1965653E-1,7.115238E-2,7.914634E-2,8.701308E-4,-2.537766E-2,1.4331554E0,6.6282004E-2,-2.878185E-2,-5.334475E-1,9.3585834E-2,-1.0844126E0,1.4086658E0,6.9006264E-2,1.7485207E0,3.3732784E-1,1.6975234E0,2.8219977E-1,3.9312765E-2,2.5783777E-1,4.2264307E-1,-1.55404005E-2,9.3717495E-4,6.4909E-2,-5.003543E-2,-4.755537E-1,1.0622095E-1,-5.6633618E-2,-6.729143E-1,2.4889776E-2,1.0417391E-1,1.4531699E-1,3.4238973E-1,2.5393243E0,1.06764816E-1,-4.5483994E-1,-2.054618E-2,-9.3494266E-2,3.9907913E-3,6.745589E-2,-3.9199722E-1,-8.80078E-1,5.229597E-1,-1.8775836E-1,-5.2019723E-2,-7.777392E-1,-1.0387707E0,1.5127138E0,-5.9694417E-2,-6.014594E-2,-1.2073159E-2,3.5594252E-3,1.5441773E0,-3.8244404E-2,4.9023036E-2,-5.585252E-2,6.0643673E-2,-9.4735986E-1,1E0,1.7806368E0,3.4150806E-1,1.628172E0,-5.477179E-2,-2.695418E-1,8.997103E-2,-9.316317E-1,6.546968E-2,2.6899423E-3,6.533648E-2,6.046734E-3,5.0210852E-2,-2.0846324E-2,1E0,-1.1146885E0,-1.6221237E0,4.406689E-1,1.030126E-1,-1.1161954E0,6.7680724E-2,2.426274E0,9.29856E-2,2.295562E-2,-4.832245E-2,8.86052E-3,-3.553498E-2,-1.2972692E-2,-6.1551522E-2,-4.005291E-2,3.3069414E-1,-1.3318249E0,-6.754377E-2,1.4775739E0,1.7806368E0,-7.1265325E-2,1.5227646E0,2.6483094E-2,2.1376474E-2,-1.7956823E-1,-4.5426976E-2,1.711831E0,-6.708084E-1,9.6989304E-1,1.615898E-1,3.9891656E-3,7.962736E-2,1.5694007E0,-4.5748476E-2,-4.1061915E-2,1.917473E0,1.587982E-2,-4.704487E-2,6.755864E-1,6.5656555E-1,7.775377E-2,-4.738429E-2,1.0776318E-2,-8.8789605E-2,-1.5661743E0,9.5912135E-1,4.4562016E-2,-3.7839137E-2,-4.003219E-2,7.541501E-2,7.0246704E-2,-1.5461698E-2,-1.4917449E0,8.8855124E-1,6.1065134E-2,-1.8688325E-2,9.6729994E-1,4.0715873E-2,7.893566E-3,-4.028099E-2,8.270677E-2,1E0,-8.79959E-1,-8.125581E-1,-4.099851E-1,9.613312E-2,-2.8880805E-1,6.3236624E-1,2.5698036E-2,-1.8775476E-2,-5.876589E-2,1.1420676E0,5.6385536E-2,-2.7433852E-2,4.8059978E-2,9.26039E-3,-1.1588947E-1,3.524214E-1,4.066468E-3,7.702889E-2,-1.5661743E0,-4.6902325E-2,1.0062534E0,1.4116712E0,4.3692715E-3,7.115238E-2,2.0379171E0,4.315538E-2,-5.6129444E-2,1E0,-6.590492E-2,1.2252976E0,-6.598733E-2,-1.3901271E-2,5.2422895E-3,-3.7576593E-2,8.197501E-2,-3.8976442E-2,3.081049E-2,9.312656E-2,6.096933E-2,-3.51526E-4,2.3274906E-2,1.0623305E-1,5.2961316E-2,-5.44464E-4,5.4084476E-2,-4.686625E-2,8.698784E-2,3.2706816E-2,-3.709623E-2,6.8344034E-2,6.554678E-2,1.3337758E-2,-4.623241E-2,8.267482E-2,6.702614E-1,8.964029E-4,6.3557126E-2,-1.4303764E0,5.9714634E-3,-4.1395E-2,-4.3596823E-2,5.181396E-2,-3.291545E-1,-5.5650204E-2,-1.2704802E0,6.755864E-1,6.345171E-2,-9.881748E-3,1.3945028E-2,7.3766226E-1,2.2599956E-2,-1.734885E-2,2.5843576E-1,4.2264307E-1,5.831497E-1,-9.637483E-1,-1.3189274E0,8.8855124E-1,5.5472076E-2,-1.5211766E-2,2.7541285E-2,7.115238E-2,4.3994114E-3,-4.4913135E-2,8.493999E-2,-9.5946753E-1,3.3390883E-2,9.71606E-2,8.194701E-2,1E0,7.09547E-2,9.151778E-2,-2.3414306E-3,6.333596E-2,-4.1208994E-2,5.021738E-2,8.3929546E-2,2.2464616E-2],"split_indices":[3,2,5,4,3,4,3,5,3,2,5,0,4,4,5,0,0,0,4,0,4,4,5,3,0,5,4,4,0,4,0,4,4,5,0,4,4,0,5,3,0,0,0,0,0,4,5,5,0,2,2,3,4,5,3,4,5,0,0,3,5,3,5,0,5,0,2,2,2,0,0,2,5,0,4,3,0,2,2,0,5,2,5,4,0,3,4,0,0,0,0,2,0,0,2,0,0,2,4,4,0,5,0,5,0,0,5,3,4,5,0,3,2,5,0,0,0,0,5,0,0,0,0,2,0,3,3,5,0,4,0,4,0,0,0,0,0,0,0,5,5,5,0,3,0,4,0,0,0,0,0,0,0,0,5,5,0,5,3,3,5,0,4,3,0,5,4,2,2,0,0,5,0,0,5,0,0,2,2,0,0,0,2,3,5,0,0,0,0,0,0,5,2,0,0,4,0,0,0,0,0,2,2,4,0,3,2,0,0,0,2,0,0,0,0,3,4,0,0,3,0,5,2,0,2,4,0,0,0,0,2,0,0,0,0,0,0,0,0,0,0,0,0,0,0,0,0,0,0,0,0,0,0,0,0,2,0,2,3,0,0,0,0,5,0,3,2,0,0,0,2,0,0,2,4,4,3,5,2,0,0,0,2,0,0,0,3,0,0,5,0,0,0,0,0,0,0,0,0],"split_type":[0,0,0,0,0,0,0,0,0,0,0,0,0,0,0,0,0,0,0,0,0,0,0,0,0,0,0,0,0,0,0,0,0,0,0,0,0,0,0,0,0,0,0,0,0,0,0,0,0,0,0,0,0,0,0,0,0,0,0,0,0,0,0,0,0,0,0,0,0,0,0,0,0,0,0,0,0,0,0,0,0,0,0,0,0,0,0,0,0,0,0,0,0,0,0,0,0,0,0,0,0,0,0,0,0,0,0,0,0,0,0,0,0,0,0,0,0,0,0,0,0,0,0,0,0,0,0,0,0,0,0,0,0,0,0,0,0,0,0,0,0,0,0,0,0,0,0,0,0,0,0,0,0,0,0,0,0,0,0,0,0,0,0,0,0,0,0,0,0,0,0,0,0,0,0,0,0,0,0,0,0,0,0,0,0,0,0,0,0,0,0,0,0,0,0,0,0,0,0,0,0,0,0,0,0,0,0,0,0,0,0,0,0,0,0,0,0,0,0,0,0,0,0,0,0,0,0,0,0,0,0,0,0,0,0,0,0,0,0,0,0,0,0,0,0,0,0,0,0,0,0,0,0,0,0,0,0,0,0,0,0,0,0,0,0,0,0,0,0,0,0,0,0,0,0,0,0,0,0,0,0,0,0,0,0,0,0,0,0,0,0,0,0,0,0,0,0,0,0],"sum_hessian":[2.0132705E3,6.842667E2,1.3290038E3,1.8907957E2,4.9518713E2,1.1460605E3,1.8294319E2,1.1195375E2,7.7125824E1,4.7070004E2,2.448709E1,5.98545E1,1.086206E3,6.902336E1,1.1391983E2,6.49521E1,4.700165E1,1.0909595E0,7.603487E1,4.4350253E2,2.7197508E1,1.8118126E1,6.3689632E0,5.8711544E1,1.1429545E0,1.0443721E3,4.183395E1,3.861151E1,3.0411854E1,7.060013E1,4.3319702E1,4.3608036E1,3.3936164E0,2.8158049E1,4.7876816E1,4.2761765E2,1.5884895E1,7.69082E0,1.9506687E1,1.5645553E1,2.4725728E0,1.4420822E0,4.9268813E0,7.834942E0,5.0876602E1,1.0297577E3,1.4614386E1,1.4039303E1,2.7794647E1,3.267552E1,5.9359884E0,5.7546642E1,1.3053486E1,4.103387E1,2.285833E0,4.5781536E0,3.9029884E1,1.1284014E0,2.265215E0,6.388939E0,2.176911E1,2.8100873E2,1.4660893E2,1.9750695E0,1.3909825E1,1.7889712E0,1.7717716E1,5.6805396E0,9.965013E0,6.6460743E0,1.1888674E0,6.9417925E0,1.0228159E3,1.2124524E0,1.3401934E1,6.642613E0,7.39669E0,3.0428633E1,2.2468886E0,1.4710642E0,4.464924E0,3.4854412E1,2.269223E1,1.1366619E1,1.6868672E0,3.668324E1,4.350631E0,1.0961558E0,1.1896771E0,2.6008017E0,1.9773521E0,2.6373703E0,3.6392513E1,4.1092005E0,2.2797384E0,1.1675568E0,2.0601553E1,1.35128565E1,2.6749585E2,9.453177E1,5.2077168E1,1.1864953E1,2.0448728E0,1.6577873E1,1.1398438E0,2.4322312E0,3.2483084E0,2.1062298E0,7.8587832E0,4.074817E0,2.8669753E0,1.0003639E3,2.2452032E1,8.8943E0,4.5076327E0,5.5973606E0,1.0452526E0,1.1566354E0,2.9271997E1,1.0842386E0,1.1626501E0,2.510762E0,1.954162E0,1.4886989E1,1.9967424E1,1.623338E1,6.4588504E0,6.0826235E0,5.2839956E0,1.6002281E1,2.0680958E1,3.1335125E0,1.217119E0,1.1480359E0,1.4893343E0,1.1251948E0,1.1545435E0,1.3007609E0,1.2212095E1,4.1068177E0,2.6338904E2,5.241323E1,4.2118538E1,3.544408E0,8.320545E0,3.0914197E0,1.3486453E1,1.1751943E0,2.0731142E0,1.082177E0,1.0240527E0,1.0601919E0,6.798591E0,1.1107296E0,2.9640877E0,4.2253796E1,9.581101E2,3.5269372E0,1.8925095E1,3.864684E0,5.0296164E0,1.1580317E0,2.8113966E1,9.854445E0,5.032543E0,1.7646631E1,2.3207927E0,1.1393002E1,4.840378E0,1.1583154E0,5.300535E0,2.778386E0,3.3042374E0,2.4842732E0,1.3518007E1,1.3934618E0,1.7400506E0,7.609216E0,4.6028795E0,2.2209969E0,1.8858207E0,2.0372815E0,2.6135175E2,4.8250397E1,4.162835E0,2.3399963E0,1.2044117E0,1.1204604E0,1.9709592E0,1.8643981E0,1.0996896E0,7.337255E0,3.4916542E1,1.3639066E0,2.1630306E0,1.7578E1,1.347096E0,1.0993829E0,2.7653012E0,2.1829345E0,2.846682E0,3.2885854E0,2.482538E1,3.5329752E0,6.3214703E0,1.4341795E1,3.3048372E0,1.1674109E0,1.1533818E0,8.068179E0,3.3248231E0,3.2628927E0,1.5774851E0,1.1745548E0,1.6038313E0,1.1259099E1,2.2589085E0,1.767733E0,5.841483E0,2.8880181E0,1.7148616E0,4.9798408E0,2.5637192E2,1.1257048E0,4.712469E1,2.2242017E0,1.9386336E0,3.7378535E0,3.5994015E0,2.8483673E1,6.432868E0,1.650571E1,1.0722871E0,1.7791274E0,1.0675546E0,2.1903217E0,1.0982637E0,1.4553559E0,2.3370024E1,1.6618333E0,1.8711419E0,1.1811147E0,1.316068E1,1.4309862E0,1.8738511E0,1.4328102E0,1.8920128E0,9.378811E0,1.8802885E0,1.0610951E0,1.1978134E0,1.4885318E0,1.3994863E0,2.0075853E0,2.9722555E0,2.55198E2,1.1739118E0,6.119439E0,4.1005253E1,1.1005347E0,1.123667E0,1.6374316E0,1.9619699E0,2.5585685E0,3.8742998E0,1.6566899E2,8.9529015E1,4.5600476E0,1.5593914E0,1.3964887E0,3.9608765E1,1.3104153E0,1.2481532E0,2.7663405E0,1.6290265E2,4.1932654E0,8.5335754E1,3.1463453E1,8.145312E0,1.6893361E0,1.0770043E0,1.5892321E0,1.6131342E2,1.1363103E0,3.0569553E0,7.307841E1,1.2257348E1,1.4014807E0,3.0061972E1,2.5499744E0,5.595338E0,2.1776081E1,1.3953734E2,1.334573E0,1.0922774E1,1.1088629E0,1.4411116E0,4.4116087E0,1.183729E0],"tree_param":{"num_deleted":"0","num_feature":"7","num_nodes":"299","size_leaf_vector":"1"}},{"base_weights":[-2.4824018E-2,-7.2418004E-1,1.0622045E-1,1.0651807E-1,-6.731872E-2],"categories":[],"categories_nodes":[],"categories_segments":[],"categories_sizes":[],"default_left":[0,0,0,0,0],"id":5,"left_children":[1,3,-1,-1,-1],"loss_changes":[3.0062852E3,2.6830046E3,0E0,0E0,0E0],"parents":[2147483647,0,0,1,1],"right_children":[2,4,-1,-1,-1],"split_conditions":[2E0,1E0,1.0622045E-1,1.0651807E-1,-6.731872E-2],"split_indices":[6,6,0,0,0],"split_type":[0,0,0,0,0],"sum_hessian":[1.9980612E3,1.5080182E3,4.9004297E2,2.6944016E2,1.238578E3],"tree_param":{"num_deleted":"0","num_feature":"7","num_nodes":"5","size_leaf_vector":"1"}},{"base_weights":[-4.885108E-4,-6.9170177E-1,1.00496486E-1,1.0076033E-1,-6.617891E-2],"categories":[],"categories_nodes":[],"categories_segments":[],"categories_sizes":[],"default_left":[0,0,0,0,0],"id":6,"left_children":[1,3,-1,-1,-1],"loss_changes":[2.7236152E3,2.497338E3,0E0,0E0,0E0],"parents":[2147483647,0,0,1,1],"right_children":[2,4,-1,-1,-1],"split_conditions":[2E0,1E0,1.00496486E-1,1.0076033E-1,-6.617891E-2],"split_indices":[6,6,0,0,0],"split_type":[0,0,0,0,0],"sum_hessian":[1.95796E3,1.4575034E3,5.0045657E2,2.754232E2,1.1820802E3],"tree_param":{"num_deleted":"0","num_feature":"7","num_nodes":"5","size_leaf_vector":"1"}},{"base_weights":[-9.777976E-3,-6.791371E-1,9.5617674E-2,9.595937E-2,-1.2971385E0,-6.518503E-2,-1.105812E0,-6.560884E-2,2.5044203E-1,9.717415E-1,-4.970621E-2,8.197178E-2,-1.1000605E-2],"categories":[],"categories_nodes":[],"categories_segments":[],"categories_sizes":[],"default_left":[0,0,0,0,0,0,0,0,0,0,0,0,0],"id":7,"left_children":[1,3,-1,-1,5,-1,7,-1,9,11,-1,-1,-1],"loss_changes":[2.4785034E3,2.296842E3,0E0,0E0,8.544922E-3,0E0,1.2891338E1,0E0,7.04123E0,4.1723084E0,0E0,0E0,0E0],"parents":[2147483647,0,0,1,1,4,4,6,6,8,8,9,9],"right_children":[2,4,-1,-1,6,-1,8,-1,10,12,-1,-1,-1],"split_conditions":[2E0,1E0,9.5617674E-2,9.595937E-2,1.5885618E0,-6.518503E-2,9.6729994E-1,-6.560884E-2,1E0,1.6609011E0,-4.970621E-2,8.197178E-2,-1.1000605E-2],"split_indices":[6,6,0,0,5,0,4,0,0,5,0,0,0],"split_type":[0,0,0,0,0,0,0,0,0,0,0,0,0],"sum_hessian":[1.9243939E3,1.4278196E3,4.9657428E2,2.73944E2,1.1538756E3,1.10999E3,4.388562E1,3.811814E1,5.7674775E0,3.7901025E0,1.977375E0,2.1883845E0,1.601718E0],"tree_param":{"num_deleted":"0","num_feature":"7","num_nodes":"13","size_leaf_vector":"1"}},{"base_weights":[-7.677108E-3,1.0795842E0,-6.7008555E-1,9.245519E-1,1.7119312E0,-9.45359E-1,9.3967044E-1,1.9345193E-1,1.1607853E0,8.6276345E-2,2.3991818E-2,8.4558815E-2,-1.126353E0,7.5849307E-1,1.6590444E0,-1.1143495E0,1.4038417E0,1.239083E0,-1.6850398E-1,-1.2207708E0,1.32196E0,8.4502035E-1,5.750685E-2,8.754117E-2,7.978374E-1,-6.3937776E-2,5.6931037E-1,1.5552899E0,1.3013813E-1,1.3171902E0,3.384477E-1,-9.474997E-1,1.324481E0,-1.2423215E0,-5.777493E-1,2.7678585E-1,8.244404E-2,6.202954E-1,1.3402107E0,4.1994E-1,-9.076014E-1,-3.1039277E-3,6.532409E-2,-4.2298492E-2,6.0323514E-2,7.793244E-2,1.6952813E0,-5.405326E-2,1.0602674E0,1.3498816E0,4.3310013E-1,-4.011235E-1,1.4659958E0,1.3149886E-1,-1.1554561E0,-6.416136E-3,7.965078E-2,-1.6744664E-1,-1.2505583E0,-7.7640057E-1,5.8831924E-1,-5.3220678E-2,6.926995E-2,9.035799E-1,4.1174686E-1,5.2739656E-1,7.154011E-2,-4.4327464E-2,7.192096E-1,-1.3567883E-2,-5.0565887E-2,9.130084E-1,-4.854287E-2,2.7074281E-2,8.5649416E-2,1.6322883E-2,7.027232E-2,1.2613084E0,1.5943679E0,7.596642E-1,-4.907972E-2,5.678617E-1,-7.7189016E-1,7.816276E-2,3.1823467E-2,-3.5680193E-2,3.592288E-2,-1.2025795E0,-1.6678957E-2,4.5022115E-1,-4.8107352E-2,-9.705203E-1,-6.296437E-2,2.0442694E-2,-1.194458E0,-2.3748385E-2,5.7154804E-2,1.0946817E0,-2.6276112E-1,1.0306635E0,9.046126E-2,-1.8069983E-2,5.6290235E-2,6.487351E-2,2.4402094E-1,5.7922583E-2,5.68388E-3,8.206771E-2,1.2985944E0,-1.4786787E-2,1.618959E0,1.0954915E0,2.5331402E-2,5.8335897E-2,-1.5277842E-1,-1.0319171E0,3.7190422E-2,-6.267961E-2,-1.9987352E-2,-3.9390862E-2,1.054924E0,-3.1632215E-1,-5.5334616E-2,5.054803E-1,-4.932286E-2,-1.2934573E-2,-6.176514E-2,1.2452658E0,-1.3674828E-1,-6.805381E-1,3.0240227E-2,2.0704443E-2,7.1793795E-2,7.78026E-1,-3.5726404E-1,-6.2675744E-1,5.6294538E-2,-5.0222844E-1,5.571556E-2,1.7374761E-1,1.3358428E0,1.3571255E0,8.737054E-2,2.5976148E-1,7.241685E-2,3.8737735E-1,-3.5478693E-2,3.4738515E-2,-4.0500294E-2,-5.399961E-2,-1.581729E-2,6.8631776E-2,6.9013285E-3,-4.6098426E-2,2.2887619E-1,6.634825E-2,-4.7660783E-2,1.40743E0,-4.3256316E-2,-4.8066717E-2,5.2239913E-2,-4.839496E-2,1.5713932E-3,-4.873996E-2,5.372755E-2,1.0645753E0,-3.3943508E-2,-8.635998E-1,3.1469336E-1,-9.8860925E-3,-4.1538678E-2,2.5317317E-2,-7.9113805E-1,-1.8128486E-1,5.6755822E-2,1.5107151E0,1.2033875E0,3.9132836E-1,7.2279744E-2,5.1164635E-2,-2.5509585E-2,-6.1158754E-4,3.638449E-2,5.6453563E-2,-2.9100511E-2,8.9810066E-2,1.0587212E0,9.909481E-3,1.2026525E0,-6.256067E-2,2.922226E-1,8.177631E-1,-4.00099E-2,-5.133758E-2,4.348518E-3,3.101018E-1,-4.7764715E-2,1.5212294E0,1.571122E-2,-1.4370896E-1,1.2463062E0,5.7950485E-2,-2.920383E-2,8.063951E-2,4.0841475E-1,1.3329134E0,1.0227629E-2,-1.7024111E-2,5.0986316E-2,1.0984837E0,-8.299669E-3,-4.177916E-2,4.7612038E-2,1.0592269E0,7.817319E-2,-4.045788E-2,3.8166955E-2,1.3943989E0,1.0408747E0,-1.0703281E-1,8.492554E-1,1.0603424E-2,7.528409E-2,5.2324845E-3,7.1533985E-2,1.275443E0,1.9717427E-1,1.4972873E0,8.6702174E-1,1.2033875E0,-6.674051E-1,5.280684E-1,-4.3662995E-2,6.861519E-2,-5.8051585E-3,7.049553E-2,1.2872069E-2,5.5007458E-2,-3.810302E-2,1.4634395E-2,1.5166354E0,1.2927096E-1,9.961619E-1,1.299177E0,2.5253475E-1,-5.3730495E-2,-5.4161098E-2,-1.7590743E-2,5.558407E-2,8.015044E-2,5.6081664E-2,1.7293802E-2,-6.390337E-3,1.2210674E-2,5.643077E-2,3.168972E-2,6.967401E-2,3.0276492E-2,-3.767197E-2,-2.4551746E-2,2.3548964E-2],"categories":[],"categories_nodes":[],"categories_segments":[],"categories_sizes":[],"default_left":[0,0,0,0,0,0,0,0,0,0,0,0,0,0,0,0,0,0,0,0,0,0,0,0,0,0,0,0,0,0,0,0,0,0,0,0,0,0,0,0,0,0,0,0,0,0,0,0,0,0,0,0,0,0,0,0,0,0,0,0,0,0,0,0,0,0,0,0,0,0,0,0,0,0,0,0,0,0,0,0,0,0,0,0,0,0,0,0,0,0,0,0,0,0,0,0,0,0,0,0,0,0,0,0,0,0,0,0,0,0,0,0,0,0,0,0,0,0,0,0,0,0,0,0,0,0,0,0,0,0,0,0,0,0,0,0,0,0,0,0,0,0,0,0,0,0,0,0,0,0,0,0,0,0,0,0,0,0,0,0,0,0,0,0,0,0,0,0,0,0,0,0,0,0,0,0,0,0,0,0,0,0,0,0,0,0,0,0,0,0,0,0,0,0,0,0,0,0,0,0,0,0,0,0,0,0,0,0,0,0,0,0,0,0,0,0,0,0,0,0,0,0,0,0,0,0,0,0,0,0,0,0,0,0,0,0,0,0,0,0,0,0,0,0,0,0,0,0,0,0,0,0,0,0,0,0,0,0,0,0,0],"id":8,"left_children":[1,3,5,7,9,11,13,15,17,-1,-1,-1,19,21,23,25,27,29,31,33,35,37,39,-1,41,-1,43,45,47,49,51,53,55,57,59,61,-1,63,65,67,69,-1,-1,-1,-1,71,73,-1,75,77,79,81,83,85,87,-1,-1,89,91,93,95,-1,-1,97,99,101,-1,-1,103,-1,-1,105,-1,-1,-1,-1,-1,107,109,111,-1,113,115,-1,-1,-1,-1,117,-1,119,-1,121,-1,123,125,-1,-1,127,129,131,133,-1,-1,-1,135,-1,-1,137,139,-1,141,143,145,-1,147,149,-1,-1,-1,-1,151,153,-1,155,-1,-1,-1,157,159,161,-1,163,-1,165,167,169,-1,171,-1,173,175,177,-1,179,-1,181,-1,-1,-1,-1,-1,-1,-1,-1,183,-1,-1,185,-1,-1,-1,-1,-1,-1,-1,187,-1,189,191,-1,-1,-1,193,195,-1,197,199,201,-1,-1,-1,-1,-1,-1,-1,-1,203,-1,205,-1,207,209,-1,-1,-1,211,-1,213,-1,215,217,-1,-1,-1,219,221,-1,-1,-1,223,-1,-1,-1,225,-1,-1,-1,227,229,231,233,-1,-1,-1,-1,235,237,239,241,243,245,247,-1,-1,-1,-1,-1,-1,-1,-1,249,251,253,255,257,-1,259,-1,-1,-1,-1,-1,-1,-1,-1,-1,-1,-1,-1,-1,-1],"loss_changes":[1.3595682E3,6.848047E1,5.206938E2,9.9280304E1,1.5095825E0,4.8017395E2,2.1133514E1,2.2618341E2,4.5508484E1,0E0,0E0,0E0,2.185531E2,8.387314E0,1.2685394E0,1.9761734E1,1.4098572E1,2.8476746E1,3.0436066E1,1.1811279E1,1.1614655E1,1.2937225E1,6.1017256E0,0E0,2.3051765E0,0E0,7.1608367E0,1.3552353E1,1.1251233E1,1.034021E1,2.9071491E1,3.9823523E0,3.7233267E0,7.5281982E0,7.681326E0,1.5776857E1,0E0,4.7658234E0,2.0258484E0,5.5536413E0,4.1082382E-2,0E0,0E0,0E0,0E0,6.8203726E0,3.0625916E-1,0E0,9.5415974E-1,5.8721924E0,7.652956E0,8.131094E0,1.13925934E-1,2.326341E0,1.5711403E-1,0E0,0E0,4.262241E0,8.9733887E-1,9.045414E0,3.5565362E0,0E0,0E0,8.320307E0,1.0232594E1,3.2631364E0,0E0,0E0,2.6460996E0,0E0,0E0,7.0944357E-1,0E0,0E0,0E0,0E0,0E0,1.185376E1,4.802582E0,3.1068726E0,0E0,2.9841926E0,7.0382357E0,0E0,0E0,0E0,0E0,4.148674E-2,0E0,4.6270723E0,0E0,2.3735523E0,0E0,5.529756E0,3.599453E-1,0E0,0E0,5.9481697E0,2.5427885E0,7.1929207E0,1.11383705E1,0E0,0E0,0E0,6.196324E0,0E0,0E0,6.231884E0,1.0812805E1,0E0,7.2224426E-1,2.188797E0,1.6085413E0,0E0,2.6990423E0,1.399498E-1,0E0,0E0,0E0,0E0,9.2744684E-1,2.4126894E0,0E0,1.03883E1,0E0,0E0,0E0,1.0753029E1,5.190036E0,9.3867064E-1,0E0,7.4134927E0,0E0,6.662448E0,7.774496E0,2.068721E-1,0E0,2.3513184E0,0E0,3.482071E0,4.088745E0,2.403595E0,0E0,2.7564993E0,0E0,5.5354667E-1,0E0,0E0,0E0,0E0,0E0,0E0,0E0,0E0,3.8033204E0,0E0,0E0,1.6576767E0,0E0,0E0,0E0,0E0,0E0,0E0,0E0,1.2305317E0,0E0,6.1192913E0,6.3802195E0,0E0,0E0,0E0,1.2467043E0,3.2904177E0,0E0,8.554077E-1,8.852585E0,3.8873384E0,0E0,0E0,0E0,0E0,0E0,0E0,0E0,0E0,5.2058926E0,0E0,1.0786562E0,0E0,2.204915E0,2.26162E0,0E0,0E0,0E0,4.8936763E0,0E0,3.889923E-1,0E0,3.9547367E0,2.9748535E0,0E0,0E0,0E0,2.0966506E0,1.4259186E0,0E0,0E0,0E0,1.827528E0,0E0,0E0,0E0,1.9626961E0,0E0,0E0,0E0,3.1295013E0,1.8817986E1,2.873485E0,2.6181984E0,0E0,0E0,0E0,0E0,9.1205883E-1,3.9261868E0,1.1154022E0,1.3666792E0,5.101349E0,1.5100682E0,2.103003E0,0E0,0E0,0E0,0E0,0E0,0E0,0E0,0E0,4.403534E-1,2.3839962E-1,1.0399761E0,2.4997864E0,2.8343244E0,0E0,1.047811E0,0E0,0E0,0E0,0E0,0E0,0E0,0E0,0E0,0E0,0E0,0E0,0E0,0E0,0E0],"parents":[2147483647,0,0,1,1,2,2,3,3,4,4,5,5,6,6,7,7,8,8,12,12,13,13,14,14,15,15,16,16,17,17,18,18,19,19,20,20,21,21,22,22,24,24,26,26,27,27,28,28,29,29,30,30,31,31,32,32,33,33,34,34,35,35,37,37,38,38,39,39,40,40,45,45,46,46,48,48,49,49,50,50,51,51,52,52,53,53,54,54,57,57,58,58,59,59,60,60,63,63,64,64,65,65,68,68,71,71,77,77,78,78,79,79,81,81,82,82,87,87,89,89,91,91,93,93,94,94,97,97,98,98,99,99,100,100,104,104,107,107,108,108,110,110,111,111,112,112,114,114,115,115,120,120,121,121,123,123,127,127,128,128,129,129,131,131,133,133,134,134,135,135,137,137,139,139,140,140,141,141,143,143,145,145,154,154,157,157,165,165,167,167,168,168,172,172,173,173,175,175,176,176,177,177,186,186,188,188,190,190,191,191,195,195,197,197,199,199,200,200,204,204,205,205,209,209,213,213,217,217,218,218,219,219,220,220,225,225,226,226,227,227,228,228,229,229,230,230,231,231,240,240,241,241,242,242,243,243,244,244,246,246],"right_children":[2,4,6,8,10,12,14,16,18,-1,-1,-1,20,22,24,26,28,30,32,34,36,38,40,-1,42,-1,44,46,48,50,52,54,56,58,60,62,-1,64,66,68,70,-1,-1,-1,-1,72,74,-1,76,78,80,82,84,86,88,-1,-1,90,92,94,96,-1,-1,98,100,102,-1,-1,104,-1,-1,106,-1,-1,-1,-1,-1,108,110,112,-1,114,116,-1,-1,-1,-1,118,-1,120,-1,122,-1,124,126,-1,-1,128,130,132,134,-1,-1,-1,136,-1,-1,138,140,-1,142,144,146,-1,148,150,-1,-1,-1,-1,152,154,-1,156,-1,-1,-1,158,160,162,-1,164,-1,166,168,170,-1,172,-1,174,176,178,-1,180,-1,182,-1,-1,-1,-1,-1,-1,-1,-1,184,-1,-1,186,-1,-1,-1,-1,-1,-1,-1,188,-1,190,192,-1,-1,-1,194,196,-1,198,200,202,-1,-1,-1,-1,-1,-1,-1,-1,204,-1,206,-1,208,210,-1,-1,-1,212,-1,214,-1,216,218,-1,-1,-1,220,222,-1,-1,-1,224,-1,-1,-1,226,-1,-1,-1,228,230,232,234,-1,-1,-1,-1,236,238,240,242,244,246,248,-1,-1,-1,-1,-1,-1,-1,-1,250,252,254,256,258,-1,260,-1,-1,-1,-1,-1,-1,-1,-1,-1,-1,-1,-1,-1,-1],"split_conditions":[-8.298758E-1,2.32447E0,1.527022E0,-1.6888803E-1,2E0,-2.5917447E0,9.6729994E-1,1.226203E0,1.4116712E0,8.6276345E-2,2.3991818E-2,8.4558815E-2,1.6720742E0,1.1420676E0,1E0,2.1582723E0,1E0,-8.968121E-1,1.3361777E0,1.4331554E0,1.8893126E0,4.7278818E-1,1.12809286E-1,8.754117E-2,1.7485207E0,-6.3937776E-2,-1.1549461E0,1.0496861E0,1.4625766E0,2E0,1.3833097E0,1.479072E0,1.6164112E0,-2.3761914E0,1.7806368E0,1.0376748E0,8.244404E-2,-6.1035544E-1,-1.2626766E0,1.1518232E0,-1.5736582E0,-3.1039277E-3,6.532409E-2,-4.2298492E-2,6.0323514E-2,6.433397E-1,1.0900016E0,-5.405326E-2,1.7658315E0,1.273335E0,5.977757E-1,-8.9123404E-1,7.3766226E-1,-9.972164E-1,-8.80078E-1,-6.416136E-3,7.965078E-2,-2.537766E-2,-7.777392E-1,-8.125581E-1,-2.00502E0,-5.3220678E-2,6.926995E-2,4.2517832E-1,-9.316317E-1,1.7806368E0,7.154011E-2,-4.4327464E-2,-2.878185E-2,-1.3567883E-2,-5.0565887E-2,-6.1035544E-1,-4.854287E-2,2.7074281E-2,8.5649416E-2,1.6322883E-2,7.027232E-2,3.4827525E-3,4.4270638E-1,6.3236624E-1,-4.907972E-2,2.1965653E-1,1.7230846E0,7.816276E-2,3.1823467E-2,-3.5680193E-2,3.592288E-2,2E0,-1.6678957E-2,-1.8775836E-1,-4.8107352E-2,-1.3189274E0,-6.296437E-2,-1.8750185E-2,-7.3504955E-1,-2.3748385E-2,5.7154804E-2,2.8219977E-1,1.7806368E0,1.711831E0,-5.119288E-1,-1.8069983E-2,5.6290235E-2,6.487351E-2,6.433397E-1,5.7922583E-2,5.68388E-3,9.434107E-1,-1.4069992E0,-1.4786787E-2,1.3856828E0,3.3732784E-1,1.5261261E0,5.8335897E-2,-1.0989778E0,1.1056268E0,3.7190422E-2,-6.267961E-2,-1.9987352E-2,-3.9390862E-2,3.3069414E-1,-8.8789605E-2,-5.5334616E-2,2.3560992E-2,-4.932286E-2,-1.2934573E-2,-6.176514E-2,1.8074982E0,1.8382363E0,-7.510617E-1,3.0240227E-2,1.9535553E0,7.1793795E-2,3.9594024E-1,2.1965653E-1,2.8219977E-1,5.6294538E-2,-1.2560847E0,5.571556E-2,9.0660167E-1,4.0065783E-1,1.3624573E0,8.737054E-2,-1.2306403E0,7.241685E-2,1.3656195E0,-3.5478693E-2,3.4738515E-2,-4.0500294E-2,-5.399961E-2,-1.581729E-2,6.8631776E-2,6.9013285E-3,-4.6098426E-2,5.354596E-1,6.634825E-2,-4.7660783E-2,-3.2227615E-1,-4.3256316E-2,-4.8066717E-2,5.2239913E-2,-4.839496E-2,1.5713932E-3,-4.873996E-2,5.372755E-2,-8.013707E-1,-3.3943508E-2,1.7185144E-1,-1.4916183E-1,-9.8860925E-3,-4.1538678E-2,2.5317317E-2,1.7679352E0,-1.0920495E-1,5.6755822E-2,1.1476495E0,4.0066382E-1,-1.1161954E0,7.2279744E-2,5.1164635E-2,-2.5509585E-2,-6.1158754E-4,3.638449E-2,5.6453563E-2,-2.9100511E-2,8.9810066E-2,-1.3655032E0,9.909481E-3,6.433397E-1,-6.256067E-2,-3.9064E-1,3.19196E-1,-4.00099E-2,-5.133758E-2,4.348518E-3,-8.318963E-1,-4.7764715E-2,7.115238E-2,1.571122E-2,1E0,-1.8775836E-1,5.7950485E-2,-2.920383E-2,8.063951E-2,-2.1938348E-1,1.3172479E-1,1.0227629E-2,-1.7024111E-2,5.0986316E-2,-2.4976191E-1,-8.299669E-3,-4.177916E-2,4.7612038E-2,1.5963478E0,7.817319E-2,-4.045788E-2,3.8166955E-2,1.4859995E0,1.0746667E0,-1.0844126E0,1.3131449E-3,1.0603424E-2,7.528409E-2,5.2324845E-3,7.1533985E-2,-9.637483E-1,6.3557126E-2,-1.6221237E0,-1.2704802E0,-9.470142E-1,1.3856828E0,6.818514E-2,-4.3662995E-2,6.861519E-2,-5.8051585E-3,7.049553E-2,1.2872069E-2,5.5007458E-2,-3.810302E-2,1.4634395E-2,1E0,6.5656555E-1,1.6720742E0,-1.187879E0,8.050631E-1,-5.3730495E-2,-1.1549461E0,-1.7590743E-2,5.558407E-2,8.015044E-2,5.6081664E-2,1.7293802E-2,-6.390337E-3,1.2210674E-2,5.643077E-2,3.168972E-2,6.967401E-2,3.0276492E-2,-3.767197E-2,-2.4551746E-2,2.3548964E-2],"split_indices":[3,4,5,2,0,4,4,5,2,0,0,0,4,2,0,4,0,3,5,5,4,2,3,0,5,0,3,4,5,0,5,2,4,4,3,5,0,2,4,2,4,0,0,0,0,4,4,0,5,5,5,3,2,3,3,0,0,2,3,2,4,0,0,3,4,3,0,0,4,0,0,2,0,0,0,0,0,2,4,2,0,2,4,0,0,0,0,0,0,5,0,5,0,4,3,0,0,4,3,5,3,0,0,0,4,0,0,5,3,0,4,2,4,0,5,2,0,0,0,0,5,2,0,3,0,0,0,5,5,4,0,3,0,2,2,4,0,5,0,5,2,5,0,3,0,4,0,0,0,0,0,0,0,0,2,0,0,3,0,0,0,0,0,0,0,3,0,4,4,0,0,0,4,5,0,5,2,3,0,0,0,0,0,0,0,0,2,0,4,0,2,3,0,0,0,5,0,2,0,0,5,0,0,0,4,4,0,0,0,3,0,0,0,4,0,0,0,4,2,2,4,0,0,0,0,3,2,5,3,3,4,3,0,0,0,0,0,0,0,0,0,2,4,3,2,0,3,0,0,0,0,0,0,0,0,0,0,0,0,0,0],"split_type":[0,0,0,0,0,0,0,0,0,0,0,0,0,0,0,0,0,0,0,0,0,0,0,0,0,0,0,0,0,0,0,0,0,0,0,0,0,0,0,0,0,0,0,0,0,0,0,0,0,0,0,0,0,0,0,0,0,0,0,0,0,0,0,0,0,0,0,0,0,0,0,0,0,0,0,0,0,0,0,0,0,0,0,0,0,0,0,0,0,0,0,0,0,0,0,0,0,0,0,0,0,0,0,0,0,0,0,0,0,0,0,0,0,0,0,0,0,0,0,0,0,0,0,0,0,0,0,0,0,0,0,0,0,0,0,0,0,0,0,0,0,0,0,0,0,0,0,0,0,0,0,0,0,0,0,0,0,0,0,0,0,0,0,0,0,0,0,0,0,0,0,0,0,0,0,0,0,0,0,0,0,0,0,0,0,0,0,0,0,0,0,0,0,0,0,0,0,0,0,0,0,0,0,0,0,0,0,0,0,0,0,0,0,0,0,0,0,0,0,0,0,0,0,0,0,0,0,0,0,0,0,0,0,0,0,0,0,0,0,0,0,0,0,0,0,0,0,0,0,0,0,0,0,0,0,0,0,0,0,0,0],"sum_hessian":[1.8857313E3,7.136816E2,1.1720497E3,5.751374E2,1.3854422E2,1.00124615E3,1.7080357E2,1.4089908E2,4.342383E2,1.3663602E2,1.9081951E0,6.3782627E1,9.374635E2,1.3808154E2,3.272204E1,6.776247E1,7.313661E1,4.101477E2,2.4090622E1,9.03136E2,3.4327534E1,1.22727066E2,1.5354478E1,2.8637182E1,4.0848556E0,6.1953335E1,5.8091297E0,6.516694E1,7.9696717E0,3.7699088E2,3.3156822E1,1.6070745E1,8.019877E0,8.729474E2,3.0188593E1,8.619004E0,2.570853E1,8.59667E1,3.676037E1,1.1573199E1,3.7812781E0,1.8444963E0,2.240359E0,1.7016499E0,4.1074796E0,5.7753396E0,5.9391598E1,3.3912945E0,4.578377E0,3.6303967E2,1.3951187E1,2.0412373E1,1.2744449E1,2.6562476E0,1.3414497E1,1.3325827E0,6.6872945E0,6.800708E0,8.6614667E2,2.6079813E1,4.1087794E0,3.918398E0,4.700607E0,3.5038715E1,5.0927982E1,4.370315E0,3.2390053E1,1.7911949E0,9.782004E0,1.036886E0,2.7443922E0,3.2873354E0,2.4880042E0,1.375015E0,5.8016582E1,2.0871358E0,2.4912412E0,2.7101468E2,9.202501E1,1.17108965E1,2.2402909E0,5.5018644E0,1.4910509E1,1.061532E1,2.1291285E0,1.0002801E0,1.6559672E0,1.2248975E1,1.1655229E0,4.0704713E0,2.7302363E0,2.9573809E1,8.365729E2,9.301562E0,1.6778252E1,1.458079E0,2.6507003E0,3.0158728E1,4.8799887E0,1.6648598E1,3.427938E1,1.9178537E0,2.4524615E0,3.6318946E0,6.15011E0,2.1713283E0,1.1160071E0,8.40459E0,2.6261008E2,1.0402976E0,9.098471E1,7.698414E0,4.012482E0,2.666765E0,2.8350992E0,1.2999543E1,1.9109662E0,1.0989247E1,1.2597275E0,1.2363708E0,2.8341005E0,5.667747E0,2.3906061E1,6.613656E0,2.6879063E0,1.0084273E0,1.5769824E1,2.6862627E1,3.296102E0,3.4393458E0,1.4406427E0,5.0680327E0,1.1580566E1,1.322785E1,2.1051533E1,3.2400734E0,2.9100366E0,5.6946316E0,2.7099578E0,8.598966E0,2.5401112E2,3.375152E1,5.7233196E1,2.800795E0,4.897619E0,3.0049849E0,1.0074971E0,1.2133117E0,1.6217877E0,1.170395E1,1.2955933E0,1.735644E0,1.0984565E0,2.3576386E0,3.3101082E0,4.288715E0,2.3249412E0,2.52551E1,1.6075257E0,2.051066E0,1.2450362E0,2.1942406E0,1.2451053E0,2.6447291E0,2.4233034E0,1.1278772E1,1.9490782E0,1.184263E1,9.208901E0,1.6787965E0,1.5612768E0,1.100435E0,4.594197E0,6.872419E0,1.7265463E0,1.04991806E2,1.4901932E2,3.2873764E0,3.046414E1,1.2410572E0,1.559738E0,1.8254832E0,1.1795018E0,1.3827144E0,1.9273938E0,9.978823E0,1.5276278E1,1.8851932E0,9.393579E0,8.806705E0,3.035925E0,6.529238E0,2.6796632E0,3.4888053E0,1.1053915E0,4.570288E0,2.302131E0,1.03808174E2,1.1836308E0,4.5286765E0,1.4449065E2,1.7342334E0,1.5531429E0,7.4493194E0,7.826958E0,8.012433E0,1.3811457E0,1.9082869E0,1.127638E0,4.9889817E0,1.5402564E0,1.5333254E0,3.0369627E0,1.0879305E1,9.292887E1,2.6744843E0,1.854192E0,8.0599754E1,6.389089E1,3.9572265E0,3.8697317E0,1.3675898E0,6.644843E0,1.5792748E0,3.4097068E0,8.314386E0,2.564918E0,6.5903275E1,1.469648E1,5.861067E1,5.28022E0,2.3337092E0,1.6235173E0,2.2364404E0,1.6332911E0,7.004222E0,1.3101646E0,1.2455332E0,1.3193848E0,1.2967435E0,6.460653E1,2.4874136E0,1.2209066E1,5.2913773E1,5.696896E0,2.7210553E0,2.5591648E0,1.089023E0,1.2446864E0,5.0504673E1,1.4101856E1,1.1625085E0,1.3249052E0,2.254405E0,9.954661E0,7.5268416E0,4.5386932E1,4.511783E0,1.1851132E0,1.4324386E0,1.1267262E0],"tree_param":{"num_deleted":"0","num_feature":"7","num_nodes":"261","size_leaf_vector":"1"}},{"base_weights":[-2.3257697E-2,-6.657708E-1,8.804792E-2,8.880069E-2,-6.295674E-2],"categories":[],"categories_nodes":[],"categories_segments":[],"categories_sizes":[],"default_left":[0,0,0,0,0],"id":9,"left_children":[1,3,-1,-1,-1],"loss_changes":[2.101798E3,1.9552615E3,0E0,0E0,0E0],"parents":[2147483647,0,0,1,1],"right_children":[2,4,-1,-1,-1],"split_conditions":[2E0,1E0,8.804792E-2,8.880069E-2,-6.295674E-2],"split_indices":[6,6,0,0,0],"split_type":[0,0,0,0,0],"sum_hessian":[1.8313955E3,1.3469668E3,4.8442865E2,2.6293903E2,1.0840278E3],"tree_param":{"num_deleted":"0","num_feature":"7","num_nodes":"5","size_leaf_vector":"1"}},{"base_weights":[-2.645604E-2,-6.532474E-1,8.4943436E-2,8.578398E-2,-6.2129032E-2],"categories":[],"categories_nodes":[],"categories_segments":[],"categories_sizes":[],"default_left":[0,0,0,0,0],"id":10,"left_children":[1,3,-1,-1,-1],"loss_changes":[1.9289319E3,1.8287075E3,0E0,0E0,0E0],"parents":[2147483647,0,0,1,1],"right_children":[2,4,-1,-1,-1],"split_conditions":[2E0,1E0,8.4943436E-2,8.578398E-2,-6.2129032E-2],"split_indices":[6,6,0,0,0],"split_type":[0,0,0,0,0],"sum_hessian":[1.7816788E3,1.3073533E3,4.743256E2,2.6006512E2,1.0472881E3],"tree_param":{"num_deleted":"0","num_feature":"7","num_nodes":"5","size_leaf_vector":"1"}},{"base_weights":[-2.4110578E-2,